MLP Model Weights
Learning Rate: 0.001
Num Layers: 0
Layer 1
 - Neurons: 128
 - Learning Rate: 0.001
  Neuron 1
   - Bias: 0.0961594
   - Weights: -0.0584625 -0.0975402 0.0453511 -0.0255036 -0.00519707 -0.00930933 0.0695249 0.0599326 -0.0661392 0.0386414 0.0587689 0.0899265 0.050821 -0.0549267 0.00155676 -0.101211 -0.00775666 -0.00545004 -0.111717 0.0163539 -0.0335939 0.0251266 0.0304804 -0.102474 -0.024469 -0.00469828 0.00570133 0.0330273 -0.0570983 0.0332942 0.0512878 0.109311 0.0053535 0.0508582 -0.116096 0.177885 -0.0796438 0.0387562 -0.0188562 -0.034426 -0.00757153 -0.0995591 -0.0825156 0.00442229 0.0287559 -0.0460889 0.0105921 -0.00576539 0.0905429 0.0419689 -0.0355138 -0.063261 0.0250157 0.0704116 0.0435236 0.0927601 -0.0635975 0.0642618 0.0747751 0.042321 -0.0470997 -0.0555549 -0.0174678 -0.0518689 -0.0363124 0.0450731 -0.0221732 0.0819769 0.0226522 -0.00963744 -0.0479276 0.0655633 -0.0690721 0.101232 0.00667318 -0.021027 -0.0695277 -0.0240918 0.0888057 0.0652574 -0.035992 -0.0760686 -0.0347995 -0.0403488 -0.0425284 -0.0589778 -0.00383785 0.00130599 -0.0168965 0.0756753 -0.00490705 0.127126 -0.0100359 -0.0334174 0.00216308 -0.058248 0.0338645 -0.0556199 -0.0571273 -0.0074382 0.01527 -0.0343289 -0.0237828 0.026749 0.0483275 -0.0819511 -0.0428423 -0.0529071 -0.0620868 -0.0211872 0.0175816 -0.0576866 -0.0425039 0.0954227 0.0698578 -0.0262265 -0.0684316 0.029092 0.0149926 0.0440207 -0.0240065 -0.0878995 -7.65413e-05 0.0260791 -0.0193979 0.0362625 -0.016037 0.140999 0.114152 0.0129132 0.0365937 0.0844498 -0.00635917 0.00827294 0.0897648 0.125143 0.0331612 -0.0142658 -0.00596487 0.0119297 0.0228752 -0.0372319 -0.0085642 0.0390143 0.0990793 -0.016716 -0.0874196 0.0407282 0.0401428 -0.0575536 0.0233964 0.0122553 0.0464473 0.0343109 -0.0474806 -0.0125658 -0.00410728 0.0197164 0.0565126 0.0495814 0.051342 0.0354119 0.0949458 0.0809754 -0.0070668 -0.00758895 0.00138317 0.0402661 0.0340031 -0.0239349 -0.0129857 0.00484345 0.0398243 0.0233633 -0.00514961 0.0313251 -0.0197932 -0.0991288 -0.00507645 -0.00392163 -0.0910205 -0.0708814 -0.101472 -0.0812469 0.16501 -0.0491059 0.0776465 0.057834 0.0173678 0.00232726 -0.0199857 0.00888431 0.0222041 -0.0233676 -0.0203086 0.0707434 0.0027754 0.0218998 -0.00443228 -0.0427312 -0.049547 -0.0880867 -0.076797 -0.0671299 0.0882337 -0.0962094 0.0345751 0.012538 0.0714284 -0.0360717 0.0159554 -0.0614588 -0.0142154 0.0499619 -0.00636301 -0.0978274 0.00954043 -0.0381287 -0.0653902 0.0229692 0.00472164 -0.0599022 -0.0565358 0.0145752 -0.0299976 -0.0234071 0.0354919 0.005305 -0.0252085 0.0796217 0.000528304 -0.0953046 0.0449078 0.104255 0.0120385 -0.00170539 -0.0442218 -0.132561 -0.0438172 -0.0434994 -0.0864864 0.0107327 -0.0790976 0.0398799 -0.0229036 0.123991 0.00776396 -0.0457142 0.0623366 0.014603 0.00394829 -0.0306302 0.0403482 0.00255215 0.100635 0.096204 -0.0399207 0.0868117 0.00204794 0.00204651 0.120928 0.00260575 0.0539753 -0.0315707 -0.109113 -0.116079 -0.0865673 -0.000544434 0.0283684 -0.0234917 0.0179054 -0.0550544 -0.0131103 -0.0508037 0.0226975 -0.0197151 -0.0167591 0.109338 0.0664953 -0.0129404 -0.047231 0.160886 -0.0805911 -0.0371373 -0.0370323 0.0831153 -0.0490555 0.0359469 0.137382 0.0173721 -0.0762772 -0.0425921 0.0193985 -0.0227668 -0.00655612 0.0253924 -0.01313 0.0182945 0.0450195 -0.0788384 -0.0742138 -0.03341 -0.0919259 -0.0538499 0.0508178 -0.112028 0.0841356 -0.0123944 0.000972002 0.0611492 0.00234388 0.0236584 -0.111851 0.0172157 -0.0402691 0.046308 0.0373279 0.0390929 0.0498098 -0.0909336 -0.126272 0.0707534 0.0112069 0.0446626 0.12108 0.0608588 0.0549691 -0.00704728 -0.0578923 -0.00239308 -0.112023 -0.0174238 0.011399 0.00170781 -0.0441719 -0.0853701 -0.0285594 0.0595185 -0.0279896 -0.0139813 -0.045901 -0.0784781 -0.0696475 0.0226419 -0.0376098 0.0166837 0.0149662 0.10455 0.0140027 0.0725882 0.106434 -0.0141324 -0.0550532 -0.000675432 -0.0171324 -0.0121996 0.105181 0.0165269 0.074239 0.0663483 0.0277805 0.0451465 0.103715 0.0240066 -0.0570286 0.0581161 -0.0203256 -0.0307889 -0.029454 -0.00524894 -0.0214001 0.0364513 0.00789946 -0.0061261 0.0608252 0.184206 0.161613 0.0487388 0.0545648 0.120321 0.0898017 0.0321495 0.124106 0.0958788 -0.0141957 -0.0769378 -0.0137505 0.015062 0.0239184 0.000611059 0.00121385 -0.0257306 -0.0193989 0.00066661 0.0511587 -0.0259605 -0.0187382 -0.0532972 -0.00495738 -0.0868841 -0.142957 -0.0542419 0.0825005 0.143836 0.143175 0.12868 0.0689255 0.0669373 0.0015765 0.0373646 -0.0105155 -0.0844697 -0.0661575 -0.0879137 -0.0216328 -0.0272263 0.0292953 -0.00114047 -0.00473974 -0.0273036 0.0319418 -0.00981013 -0.00725686 -0.016271 0.0762081 -0.104685 -0.0719088 -0.068754 -0.0800782 -0.0779018 0.00156629 -0.0559517 0.0740484 0.0725842 0.160246 -0.0257102 0.0122342 0.0151509 0.0448392 -0.0917149 -0.100581 -0.0830092 -0.0803856 0.0784676 0.0238715 -0.100324 0.0439761 -0.0958948 0.00996901 0.0747999 -0.0290183 -0.0162901 0.023199 -0.110234 -0.092381 -0.11734 -0.164852 -0.243082 -0.063664 -0.111241 -0.0126333 0.0159221 0.0578996 -0.010169 -0.078172 -0.0890342 0.0868146 0.025662 -0.0248696 -0.0564322 -0.0632871 0.0160456 -0.078707 -0.0300657 -0.00252682 0.0609577 0.0260526 0.00876141 -0.0697403 -0.0488188 -0.0596861 -0.00370196 -0.0171482 -0.127193 -0.27953 -0.194765 -0.236978 -0.185546 -0.162476 -0.113851 0.00862281 0.0188948 0.0197271 0.0031321 -0.00569822 -0.00123957 -0.0135609 -0.0977957 -0.0109796 -0.0617326 -0.0286877 0.0802471 -0.0239363 0.0183504 -0.0119973 -0.020485 0.0215559 0.0448284 -0.0900616 -0.0855339 -0.0827784 -0.0966467 -0.157938 -0.263825 -0.253447 -0.146722 -0.178371 -0.141386 -0.0067652 -0.137365 -0.0683793 -0.0271704 -0.202381 0.0146218 -0.0149603 -0.0410418 0.0348997 -0.0414785 0.0547887 0.0110872 -0.0559958 -0.117678 -0.126938 0.0187937 -0.0159668 0.00276877 -0.0412348 -0.010474 -0.0616001 -0.0590806 -0.00956872 -0.0754531 -0.171964 -0.112744 -0.0823149 -0.0709967 -0.115485 -0.00821975 0.0586739 -0.052745 0.0737962 0.00897957 0.0163732 -0.0546305 -0.0276011 0.0340288 0.0238612 0.0128741 -0.0883183 0.0172048 0.024112 -0.00972017 -0.00379195 -0.0143735 0.0501564 0.0592017 -0.0246046 -0.102979 0.0336322 0.071351 -0.025952 -0.046102 -0.0623972 -0.151793 -0.112584 0.00259742 0.0429284 0.0126655 0.0227503 -0.0264811 -0.0616369 -0.00102986 0.0173258 -0.0507257 0.0380378 0.0909209 -0.0225452 0.0409426 0.0149106 -0.00228023 0.0350835 -0.0957552 0.0541043 0.0181821 -0.0296025 0.084437 0.084925 0.152201 0.107101 0.104586 0.09274 0.160504 -0.0626574 0.0238038 0.0485757 0.0347655 0.0205028 0.0468293 0.067251 -0.00172489 0.0767238 0.0306955 0.0422743 0.0232942 -0.108301 0.0772619 0.00246376 0.00104518 -0.049283 -0.00253731 -0.0252531 0.0942892 0.104147 0.0945818 0.155386 0.122862 0.0174385 0.0762382 -0.00832961 0.0150224 0.0316207 0.032921 -0.0281931 -0.033563 -0.025678 -0.00595062 0.0063441 0.0269549 -0.0102785 0.0153559 0.0762041 0.0348223 0.00299949 0.0844293 -0.00623647 0.103169 -0.0449364 0.00123135 0.00144681 0.0353756 0.0443586 0.0599314 0.0349462 0.0417332 0.140835 0.08356 0.0623158 0.0712197 0.0365636 0.0188592 0.0916556 0.119907 0.0993237 -0.0175933 -0.0449306 -0.0292877 0.00932464 -0.0237568 -0.057948 -0.0217179 -0.035497 -0.118483 0.0150795 0.0237917 -0.0124421 -0.00467632 0.00497979 -0.0017896 0.0866076 0.0171161 0.0170903 0.0879145 0.134289 0.0230518 -0.0363599 -0.0161687 -0.0381639 0.0240935 0.0307699 0.0246153 0.0229903 0.0346639 0.0200358 0.0129148 0.00999288 0.0793126 0.098472 -0.0315778 -0.0253659 -0.05569 -0.0132756 0.0513659 -0.0246433 -0.0354432 0.0314393 -0.0253367 0.00647316 0.104887 0.027039 0.0967923 0.0528671 0.0728224 -0.022974 0.0108026 0.0954142 -0.0908639 -0.0124399 -0.130343 0.0135459 -0.115067 0.00348883 0.00349736 -0.0407211 0.0556648 -0.0283745 -0.0474223 -0.0369512 -0.0584031 0.000574036 0.0387517 -0.00746967 -0.0145898 -0.0271473 -0.023659 -0.0460978 0.00804853 -0.0903817 0.0419912 0.0317592 0.0162711 0.0565142 -0.00207993 -0.0776078 -0.00305694 -0.0297181 0.00952561 -0.0365085 0.0186879 -0.0617229 -0.0387935 -0.0401444 0.00107868 -0.0423851 -0.129734 0.0144254 -0.0346343 -0.0463288 0.0324054 0.0151253 0.00813696 0.0575049 -0.0367669 -0.0336986 0.00780006 -0.0127385 -0.00947035 -0.0781618 -0.066729 -0.0561706 0.0571259 -0.0892569 -0.0649372 0.00940741 -0.0558507 0.0383274 -0.0310697 0.0179132 -0.0314041 -0.017722 0.0216615 -0.00131336 0.046732 0.0062501 -0.0187372 
  Neuron 2
   - Bias: 0.164688
   - Weights: -0.0114683 0.0883536 0.0329494 0.00196567 -0.00958728 0.0430166 0.0344375 -0.00722409 0.0969361 0.148011 -0.0192214 0.0190225 0.0229585 -0.0334401 -0.0283477 0.037145 0.0151379 0.0450636 0.0544158 -0.0216302 0.0307742 0.0715191 0.0677682 -0.0416398 -0.0457532 0.0325466 0.0586193 -0.0431856 0.0567707 -0.0239395 0.0384082 0.046931 -0.0165021 0.029701 -0.00831273 -0.0239248 -0.0235128 -0.0469022 0.0160553 0.0222657 0.0475017 -0.0280117 -0.0167426 0.0448723 -0.0345146 -0.0253612 0.0994302 0.0926979 0.0778889 -0.0611329 0.0775788 -0.0248538 0.119713 0.0605394 -0.018237 0.0489686 0.0508808 -0.0716218 0.0247379 0.0994229 0.0287903 -0.0726141 -0.0388153 0.0264278 0.0294846 0.01189 -0.115516 -0.128469 0.0195556 0.00968543 -0.0328213 -0.0446044 -0.0633999 -0.0524805 0.0896177 -0.0697194 -0.0729152 -0.116577 0.00208069 -0.0633456 0.00630865 -0.0240687 -0.00942776 -0.0520461 0.000650004 -0.0142567 -0.0320985 0.0216684 -0.0136646 -0.150028 0.0939045 -0.023103 -0.0201602 -0.0290536 0.0122906 -0.0437928 0.000480136 -0.0634777 -0.0359789 -0.0249932 -0.0171624 0.0244438 0.044713 -0.0359859 0.104973 0.0425039 0.0756695 -0.000319337 0.0186295 -0.00554251 -0.0720057 -0.0442446 0.00408225 0.0343372 0.0508729 -0.0221192 0.0072169 -0.0837242 -0.0842892 0.025074 0.0378683 0.0140519 -0.0415171 -0.00270888 -0.105024 -0.0302516 -0.0221454 -0.0300455 0.092933 0.0709832 -0.0283985 -0.0282839 0.0816841 -0.0329318 -0.0630946 0.0236001 0.00380685 0.0318402 -0.0723735 0.0332775 -0.0274743 0.0254219 0.0521989 -0.0100548 0.010988 0.00921803 -0.129898 -0.0584148 0.0387746 -0.00770982 0.00632265 0.0477359 0.0260133 -0.0278334 0.0779919 -0.0908583 0.0207319 0.0307342 -0.0482044 -0.0591905 0.032628 0.0434873 -0.0571285 0.0229531 0.0261676 -0.0468071 0.0199113 0.0324436 0.00294079 0.117392 -0.0321652 0.0214086 0.0376041 -0.0297938 -0.0344187 0.00789103 -0.0404125 -0.00244678 0.0299734 0.0306537 0.0823987 0.00725852 0.0304247 -0.00151337 0.0235462 -0.0974126 -0.107426 0.0253826 -0.0109853 -0.1165 -0.0115251 0.0982744 0.0134514 -0.0246583 -0.010039 -0.0371986 0.0315511 -0.0133981 -0.0326892 0.0308838 0.00660595 -0.0450516 -0.0395318 -0.0893363 -0.032111 0.00252823 0.0180396 -0.0206526 0.0328102 0.05871 -0.0131016 0.038531 -0.0370128 -0.0587162 0.0139112 -0.0780521 -0.0726089 0.0538934 0.0435621 -0.0226764 0.00947174 0.0296779 0.0635777 -0.00284128 -0.00324314 -0.112353 0.0382191 -0.0434386 0.0320658 -0.128019 -0.0872021 -0.0915135 -0.0493108 0.0930784 0.0328575 0.0153888 0.0460383 0.172308 -0.0393675 -0.106575 0.0202575 0.021986 -0.0200613 -0.0316708 0.0222419 -0.0325273 0.0590082 0.0218837 0.0354466 0.0474682 -0.022507 -0.0313922 -5.43986e-05 0.0415643 0.0127539 -0.00831405 -0.0584919 -0.00494284 0.0589219 -0.0372909 -0.044796 0.053301 0.071389 0.0817854 0.123749 0.0410482 -0.0248327 -0.077755 0.0135801 0.0446552 -0.0375102 0.00844841 -0.0312177 -0.0330097 0.0139111 0.00431602 0.0894049 0.115048 0.0459081 0.0377862 -0.0348777 -0.0954631 -0.04238 -0.0688807 -0.0165499 -0.000235315 0.0666604 0.0384669 0.0623682 0.010749 0.136755 0.0698836 0.0734646 0.0258574 -0.00232369 -0.11711 -0.0722225 0.0216349 -0.0931633 -0.0944562 -0.0595472 -0.0156112 -0.0468543 0.0904389 0.0546871 -0.0725981 0.0288692 0.0648568 0.0187938 -0.00745664 -0.0161664 0.00517439 0.129356 -0.0158997 0.0646562 -0.00184812 0.100363 0.102563 -0.000334009 0.0570038 0.026287 0.0360077 0.0996302 -0.0881145 -0.0595646 -0.0853845 -0.175069 -0.121142 -0.0466767 -0.065153 -0.0825531 -0.00724415 -0.0216009 0.0325321 -0.0796533 -0.0199915 -0.0101505 0.0629056 -0.0340851 -0.037716 0.000164519 0.0816337 0.0187013 0.126857 0.0704189 0.0425283 0.0028732 0.0872286 0.0559946 -0.159667 0.0171828 -0.103472 -0.111486 -0.0256413 -0.177997 -0.0470231 -0.074188 0.024351 0.0321722 0.0281846 0.0451856 -0.049017 0.00953936 -0.0281523 0.0405632 0.120882 -0.00134519 0.028529 0.082268 -0.0147425 0.115727 0.102263 0.0308021 0.0822767 0.0264525 0.0462791 0.00295868 -0.0455093 0.000878384 0.0371339 -0.0574758 0.0411067 -0.0612925 0.0633729 0.0319789 -0.0664306 -0.0587329 0.0586884 -0.00928666 0.0719972 -0.0768526 0.0228049 0.0189922 -0.0138907 -0.0996441 -0.0858129 0.0200813 0.0932392 -0.0171217 -0.00530059 0.0205416 -0.0245524 0.0200619 0.0565482 -0.0934315 -0.00563695 -0.0495495 0.0195933 -0.0377593 0.0219541 0.0179602 0.0335113 0.0872861 0.0400795 -0.0872834 -0.129386 -0.0359362 0.0427921 0.0453575 -0.0978459 0.0137373 0.0300618 -0.00936849 0.0521472 0.0219559 -0.0333432 -0.0121163 -0.0244493 -0.0374696 0.0118021 -0.00899191 0.0567239 0.0265638 0.0593681 0.0817784 -0.00275931 0.00265268 0.00490973 -0.000929925 -0.0079105 -0.017255 -0.101149 -0.0648486 -0.0257625 0.00376289 0.0511235 0.0184036 0.030941 -0.0815811 -0.0787218 0.0530668 0.0386856 -0.0326002 -0.0860713 -0.118487 -0.0605005 -0.0960774 0.0267584 -0.0357359 -0.00462204 0.0554156 0.0819388 0.081379 -0.0534796 0.00401799 0.0136999 0.0621423 0.000597542 -0.0304078 -0.0677105 -0.15554 -0.0613784 0.00662557 0.0558024 0.0304534 -0.0540537 0.00438985 -0.0252195 -0.0224056 0.00414978 -0.00637383 -0.00500246 -0.132844 -0.076908 -0.0539905 -0.0233407 0.149708 0.0755099 0.052642 0.02763 0.0135524 -0.0416487 0.00786048 -0.0820584 -0.180443 -0.00261595 0.0113412 -0.0541592 -0.0929447 -0.0986557 -0.0109253 0.10147 -0.0449657 -0.0149117 -0.0219566 0.0332369 0.0564548 -0.0605855 0.0266591 0.0274353 -0.11531 0.00945861 0.00173767 -0.00855237 0.0683208 -0.00821786 0.04927 0.0497619 3.97854e-05 0.00891202 -0.0323079 -0.0236527 0.042258 0.0216912 0.0263149 -0.0107756 -0.0150874 -0.0229129 0.106813 0.0672287 0.0318363 -0.0826629 -0.00509567 -0.0172993 -0.0230548 0.0686323 -0.0741783 -0.0593996 -0.021954 0.00244488 -0.0416703 -0.0204289 0.0386013 0.150166 0.0687841 -0.00294173 -0.0673571 -0.0291637 -0.00195371 0.0525304 0.062602 0.177543 0.022108 0.0741831 -0.0113628 0.066148 0.00118894 0.131756 -0.0275822 -0.0907975 -0.0164914 -0.0206193 0.0154729 0.0421718 -0.0281623 -0.140765 -0.00292389 -0.0870031 -0.0459433 0.0413305 0.104935 0.147338 0.038738 0.021123 -0.0387156 0.114443 0.00877416 0.0901565 -0.0302485 0.14996 0.0612069 0.0564868 0.0856345 0.111582 0.126635 0.0381129 -0.0330178 -0.019371 -0.047987 0.0135534 -0.0065187 0.0240721 0.0419285 -0.108449 -0.060614 0.0206855 -0.0120694 -0.00300415 -0.037672 0.0722264 0.0605864 0.0357018 -0.00182085 0.00376154 -0.0637293 0.00938741 0.000589925 0.0303604 0.0523135 -0.0238325 0.00354651 0.0213618 -0.0135282 0.0105187 -0.0346096 0.00778752 -0.0378337 0.0385898 0.0698899 0.0156119 -0.0414442 -0.0337682 -0.00591116 0.0534099 0.0358574 -0.0239577 -0.0341094 0.0432128 0.0396522 0.052605 0.0237206 -0.00734516 0.0397682 0.00105944 -0.00497448 0.0482718 0.0805436 -0.00209634 0.0230238 0.0448824 -0.0581596 -0.0212041 0.044108 0.0385988 0.0766793 0.0687246 0.0138234 -0.018932 -0.0347044 -0.055167 -0.0647024 -0.134718 0.136854 0.0364251 0.00802702 -0.071226 0.0189609 0.0847013 0.0170645 0.014012 0.0922795 -0.012163 0.0269201 0.0544716 0.0430501 0.0211251 0.0822998 0.0871664 0.12765 0.0588353 0.0459841 0.0282191 -0.101017 -0.0275598 -0.0526174 0.045024 -0.0134094 -0.0535803 -0.126801 0.0207376 -0.00976149 0.00588843 0.00388813 0.014789 0.0891127 0.035541 -0.0184604 0.000426854 0.0620575 0.064419 0.0680438 0.0229641 -0.0225053 0.0649453 -0.0354998 -0.0250857 -0.0597608 -0.117164 0.0577649 -0.0222926 0.0949025 -0.0336373 -0.0466369 0.0327521 -0.0334954 -0.0132494 0.0647724 -0.00946064 -0.0406592 -0.0565103 0.0469203 0.0450982 -0.0250646 0.102461 0.0593498 -0.0282674 0.00827974 0.0110657 0.108765 -0.0316699 -0.0535426 0.0132392 -0.00933962 -0.0476935 -0.090432 0.00961981 0.044927 -0.0421824 -0.135325 -0.0453036 0.0298921 -0.00835946 -0.0188206 0.00233343 0.0107847 -0.0276272 0.0201788 -0.00167861 -0.0177027 0.00431836 -0.0573893 0.068809 -0.100744 0.0818119 -0.0679786 -0.020457 -0.0583836 0.00439965 0.0588746 0.00530028 -0.0256217 0.031792 0.0279122 0.00782789 -0.00597366 0.0792058 -0.0397534 0.0277674 0.0314869 -0.0163503 -0.0614798 0.014651 0.0726125 0.0254998 -0.0255571 0.00240178 -0.0451534 -0.0559919 -0.0729995 0.00562215 -0.0336962 0.0152845 -0.0535329 0.070174 -0.00705422 -0.0139778 0.0189917 -0.0647523 -0.0538862 -0.112991 -0.0951911 0.116096 0.0255442 0.0200501 
  Neuron 3
   - Bias: -0.0341043
   - Weights: -0.0745166 -0.0519657 0.0746621 -0.126719 -0.0715075 0.0575411 0.0172804 -0.133249 0.0135231 -0.0286231 -0.0230778 -0.0403466 -0.0127767 0.00260709 0.0229765 -0.00638495 0.0656754 0.054633 0.0495323 -0.00188363 -0.0322451 -0.00452697 -0.0205466 0.0145001 -0.063456 -0.0102446 -0.00281165 0.0949398 0.0794934 -0.0933228 0.0301569 -0.0891429 -0.0630435 0.0391393 0.0178671 0.0663404 0.025541 0.0361954 0.041702 -0.00294295 0.103607 -0.0632679 -0.0450347 -0.000309108 0.0304209 0.0589189 -0.0805404 -0.0183473 0.0425118 -0.0511778 0.0519655 -0.022137 -0.0673678 0.0386115 0.0344048 -0.0159191 -0.0336972 0.0590982 0.0222182 -0.017741 -0.00228034 -0.0542087 0.033417 -0.0185641 0.0344763 -0.0773855 -0.0057454 0.0819065 -0.0481199 0.00165379 -0.0835704 -0.0432204 -0.0440244 0.0569167 -0.0178249 -0.0885767 0.0366057 0.0364488 -0.0332199 0.114754 -0.0284078 0.0348163 -0.0549583 -0.0226209 0.122863 0.0141749 -0.0791041 0.0334771 0.029247 -0.0162434 -0.0584809 0.0404459 0.0106509 -0.0162833 -0.00860511 -0.057834 0.0592057 0.0678108 -0.00239714 0.0273503 0.0353934 -0.110133 -0.0456745 0.0626556 -0.0506326 0.0432618 0.016418 0.028073 0.0278815 -0.000750921 0.0998346 0.0134807 -0.00365718 0.045342 0.00888359 0.0355962 0.0425775 0.00305562 0.0333482 -0.0686171 0.0223452 0.0208363 -0.049739 0.032674 0.0376932 0.00931488 -0.0884952 -0.0367401 0.0534399 -0.015915 -0.0350155 -0.030494 -0.115572 -0.057981 -0.0139785 -0.005919 0.0126329 9.24874e-05 -0.0420934 0.0305209 -0.0373538 0.0120921 0.0655073 -0.0766549 0.0818767 0.0311839 -0.0630604 0.119146 0.0969186 0.0120213 0.0207436 0.055916 -0.0255411 0.128193 0.0665325 0.0152239 0.00228781 -0.0109621 -0.0171284 -0.0276914 -0.0550444 0.0345849 -0.0136402 0.109641 -0.0532931 -0.0280464 -0.0505116 -0.0422248 -0.0696998 0.0399524 0.0130266 0.0635598 -0.093874 -0.0919061 -0.0497862 -0.0205914 0.0751135 0.0157772 0.11275 -0.0535795 0.015732 0.0592086 -0.0251885 -0.0892451 0.0568663 0.0705984 0.0170831 -0.0525887 0.0547391 -0.0138698 -0.00158622 0.0295165 0.0624456 -0.0981198 -0.0112103 0.0428176 -0.0150842 0.0144152 -0.0497048 0.0172864 -0.0108993 0.0568885 -0.0538578 0.0694752 0.0802256 0.0769336 0.0984279 0.0578788 0.00726104 0.0453734 0.0661761 0.0413118 0.132064 -0.038548 0.0498526 0.0381582 0.0393995 0.0563355 -0.132319 0.0192366 -0.0183334 0.051947 0.0312598 -0.0349723 -0.0780789 -0.0240848 -0.0109762 -0.0666086 0.0678195 -0.0362283 -0.0348133 0.0846863 0.0890076 0.0313758 0.0445491 0.0724136 0.116072 -0.0604118 -0.0136878 -0.0128799 0.0408324 0.0332001 -0.0781105 0.056722 0.0454041 -0.0174019 0.0827838 0.146605 0.0198117 -0.0283143 0.0551315 -0.050472 0.0137863 -0.0206868 -0.0563255 -0.0185158 -0.0795453 0.053583 0.0421867 0.0879187 0.0180146 0.133087 -0.0325303 0.0363248 0.0295552 0.00292316 0.0275494 -0.0132141 0.00513468 0.0554169 0.0211652 0.073706 -0.0151072 -0.107328 0.011839 0.0947816 -0.0204699 0.0272741 0.0276806 0.105097 0.0431876 -0.0389229 -0.0590984 0.00222859 -0.020445 -0.0308404 0.0915906 -0.00623333 -0.0333346 -0.114976 0.0698051 -0.0101095 0.0477875 0.104663 0.0224378 -0.0926732 0.0608526 0.0232144 0.0219195 0.0108064 0.13689 0.0984882 -0.0533482 0.0760756 0.0462238 -0.0838658 -0.0275836 0.0817995 0.0603289 0.0268525 -0.00128898 -0.0169576 0.00492731 0.0412787 0.011906 -0.00241711 -0.0202324 0.0119748 0.0887446 0.162445 0.0472124 0.0266621 -0.0824351 -0.0285839 0.00531423 0.00239874 0.0850914 0.105977 -0.042964 -0.0197002 -0.101797 -0.0714818 0.0860243 -0.0206938 0.0854283 0.114363 0.001935 0.0256584 -0.0810499 0.0321195 0.0779277 -0.00712236 -0.0195116 0.0155232 0.0285211 0.0705013 0.0619188 0.0310083 -0.0534262 -0.117888 -0.0426186 -0.0527767 0.0616097 0.080226 -0.0770523 0.00700021 0.000868937 -0.020397 -0.0239404 -0.0583659 -0.0571557 0.117355 -0.0144986 -0.00588477 -0.020194 -0.0509241 -0.0225377 0.0763199 -0.00714518 -0.0844486 -0.0286146 -0.0576462 -0.0219309 -0.0622533 -0.092915 -0.0395116 -0.07116 -0.141179 0.000499408 -0.0560368 -0.0807595 -0.0171617 -0.045245 -0.112212 -0.0440334 -0.0192569 0.000727062 -0.0802935 0.0133886 0.0065014 0.00448965 -0.0670824 -0.0560255 -0.0690559 0.070617 0.0459193 -0.0772878 0.000163347 -0.0318467 -0.0705504 -0.0671347 -0.0895529 -0.0745507 -0.145448 -0.0593703 -0.0371555 -0.14268 -0.0688552 5.0599e-05 -0.0400724 0.0229154 -0.0588024 0.00212485 -0.0140604 -0.157886 0.0600305 -0.0660866 0.0346693 0.0193156 0.0258986 -0.0541273 0.0183271 0.0463074 0.0370243 -0.105596 0.065942 -0.0802218 -0.010804 -0.15083 -0.125875 -0.047529 -0.0484414 -0.00456205 0.0692048 -0.00162448 0.104104 -0.00513683 0.0304354 -0.109914 -0.0588966 0.0156122 -0.0214933 -0.0692179 0.0405782 0.0580556 -0.0399242 -0.0275033 0.0311799 0.0321922 0.0840329 0.0540745 -0.0251043 -0.111169 -0.0695779 -0.0548369 -0.0923795 -0.0723715 -0.120531 0.013338 0.0446848 -0.0525382 -0.0862355 0.0479025 0.0314392 -0.00230616 0.0183563 0.0334167 -0.0485028 -0.0222347 -0.0662477 -0.0539296 0.0659713 0.0227533 -0.0368959 -0.130436 0.00217558 0.0418911 -0.0185726 0.0618347 0.0246149 0.0937444 -0.0359375 -0.0714672 -0.045338 -0.0233534 -0.0655494 -0.0425108 0.0627252 -0.0622948 -0.0450149 -0.0843979 -0.0413502 -0.0206744 0.013635 0.104423 0.068822 -0.0540365 -0.0424669 0.0851183 -0.0626265 0.0427648 -0.0566182 0.0494828 -0.108959 0.0929173 0.0927259 -0.083816 0.00086877 0.0353176 -0.0305592 0.0225266 -0.0422506 -0.0688663 0.00340855 -0.0808358 0.036264 0.0414325 0.0498325 -0.07318 -0.0228958 -0.0738222 -0.0537388 0.0689742 0.10806 -0.0266219 0.00560803 0.0319566 0.0416525 0.0239298 0.0442666 0.0451098 -0.0973548 -0.0721971 0.00153019 -0.107047 -0.00476085 -0.065058 -0.0744921 -0.0606628 -0.0527527 -0.087973 0.0105659 -0.125623 -0.0202128 -0.105757 0.0227139 -0.144398 -0.0688459 -0.0997924 0.0737306 0.0243868 0.032568 0.0633329 0.0605065 -0.0409608 0.0822578 0.0190086 -0.0247739 -0.0504637 0.0381422 0.0750138 0.0609736 0.0236347 0.0516096 -0.0732768 0.0449557 0.0139655 -0.0548737 -0.104333 0.0301434 -0.129276 0.00586962 -0.0855703 -0.0677391 -0.0531754 -0.024368 0.0299044 -0.020893 0.0696271 0.015953 0.033603 0.085592 0.0522505 0.0785793 -0.0106603 0.0712274 0.0556614 -0.018183 0.0203399 -0.0587733 -0.0218175 0.0300289 -0.0193379 0.0152806 0.130635 -0.0410198 -0.110168 0.0189429 0.0209939 0.029351 -0.0790507 0.059114 0.107252 0.0638719 0.0333424 0.00597583 0.0920673 0.00210294 0.0930155 -0.0528341 0.0701834 -0.0185844 0.0015871 0.0536281 0.0567654 -0.0801911 0.0013117 0.0506242 -0.0478455 -0.0426876 -0.0465164 0.0477092 -0.0117936 0.0352646 0.0020925 0.0266319 0.100605 0.111984 0.143622 0.0710528 0.0621592 0.0540625 0.0461696 0.0617963 0.0596201 -0.0109006 0.0446569 -0.0371849 -0.00330882 0.0883744 -0.0474055 0.011259 -0.0688867 0.0945635 0.0719774 -0.0183631 -0.0695414 -0.042137 0.0687058 0.0855004 -0.0119339 0.0190718 0.0733299 0.0468953 0.130929 0.128727 -0.000923909 0.176053 0.122785 0.119294 0.0549809 0.146123 -0.0165367 -0.0126209 0.0233385 -0.0523234 0.0107149 -0.110596 -0.00445152 -0.0582852 -0.021191 -0.0149053 0.0105805 0.00533408 0.023254 0.0401184 -0.0526679 0.0519965 0.0777662 0.0266284 0.0795194 0.0682923 0.000451301 0.0858033 -0.0403791 0.0571354 0.0599993 0.0330991 0.0534531 0.12418 0.0863141 0.0953709 -0.0480796 -0.0418868 -0.0472503 0.054686 0.0307541 -0.0112218 -0.0544306 -0.0381294 0.0915669 -0.0429313 0.000448196 -0.00888129 -0.0110221 0.0302291 0.0561343 0.0236339 -0.00528667 0.0838308 0.064813 0.0667401 0.0890704 0.0392978 0.0218492 -0.0370984 0.0132043 -0.0876766 0.0187261 0.000575932 -0.072775 0.0103685 0.00512909 -0.0216193 0.0320676 -0.00339042 0.0514771 0.0342888 -0.0611855 -0.0552226 0.0126796 -0.0100715 0.0607496 0.0471826 0.00159067 -0.138611 0.00213875 0.0127529 -0.03936 -0.0657154 0.0240304 -0.125239 0.0290702 -0.0102798 0.0900895 0.0327307 0.0597841 -0.0103932 0.0427752 -0.00528148 0.0855716 -0.0470727 0.114369 0.0663602 -0.00512595 -0.0178831 0.0022815 -0.0176338 0.0647362 0.0368084 0.0158405 0.116564 0.0903318 0.0303397 -0.0642612 -0.0251832 0.0338276 0.00394915 0.0230183 -0.00798065 0.00336043 0.129512 0.0250439 -0.0501183 -0.0718884 -0.0166492 0.0152835 -0.0998746 -0.133111 -0.0220725 0.0217265 0.0111515 -0.0208281 0.0184861 
  Neuron 4
   - Bias: 0.0260046
   - Weights: -0.00586898 0.105466 -0.127104 0.0708608 0.0384535 0.00243848 0.0462508 -0.0312396 0.0774387 -0.0808066 -0.00117742 0.00672587 -0.0113011 0.0609935 -0.123247 -0.0142056 0.132367 -0.0583115 -0.0596097 -0.0826582 0.0384405 0.05951 -0.0420659 -0.013473 -0.0274012 -0.0573389 0.0111729 -0.0332802 0.0130316 -0.0287753 0.0293253 -0.0368419 -0.0271376 -0.0912938 0.0810959 0.0830375 0.0435872 -0.0171074 -0.05124 0.0255369 0.0605697 0.0158598 0.0303255 0.0376788 0.0339417 -0.0524877 -0.0479104 -0.0594146 0.0880418 0.0230286 -0.00651647 0.00673514 0.0778542 0.112634 -0.0793484 0.0256339 0.0245289 0.0248949 -0.0614611 0.00040023 -0.00413011 0.0558022 -0.0643991 -0.0540893 -0.0250818 0.0107739 -0.0269577 -0.0502603 0.0521539 -0.0203496 -0.0172776 0.0373546 0.0251614 0.0493237 0.0863682 0.0625719 -0.0278398 -0.0657669 -0.0757525 -0.0785274 -0.0214695 -0.0506631 0.034772 0.133318 0.111446 0.0156089 0.023187 0.00420197 0.0458718 0.0955668 0.0277154 -0.0315173 0.0298012 0.0799427 -0.040028 0.0520559 0.00519236 -0.00553768 0.0137749 -0.0434803 0.0715493 0.0176529 -0.0452397 -0.0331106 -0.11532 0.0610726 -0.0195012 0.00732261 -0.0295973 0.0202238 0.0303534 -0.0242573 0.0865327 -0.0184799 0.00445649 0.0476193 -0.0237072 -0.0455691 -0.00570956 -0.0306709 -0.0877143 0.0118339 0.0335405 -0.043501 -0.0343774 -0.00533779 0.133396 -0.0209068 -0.00383951 -0.0158717 0.108157 -0.0586841 -0.00923066 0.120826 0.0658468 -0.0686979 -0.00358636 -0.0179933 -0.00886582 -0.103391 0.000450671 -0.00126698 -0.0364182 -0.032399 -0.0280945 -0.0371977 -0.0631983 0.122976 0.0264422 0.0604451 -0.00193443 -0.0496385 -0.0531012 0.0494786 0.0348923 0.0585129 0.0311173 0.0305834 0.024702 -0.0370319 -0.108873 0.0394732 0.0349015 0.0262677 0.0122883 0.0488861 0.0983102 -0.030973 -0.00116106 0.0526453 0.00976101 -0.105491 -0.0270822 0.06025 -0.00262978 0.025414 0.0332432 -0.0106137 0.0435263 0.00954569 -0.0357631 0.107221 0.0369096 0.0682494 0.00946813 0.0618445 0.000435516 -0.107404 0.0072385 0.0501699 0.0759894 -0.045967 0.0570656 -0.0486352 0.0827741 -0.0184009 -0.0419831 -0.0259122 -0.0219035 0.00672715 -0.0397344 -0.0700294 0.128045 -0.0784319 0.0253351 0.0259758 -0.0289652 -0.0864839 -0.0580351 -0.0603815 0.0718414 0.0521441 0.0350578 0.0125409 -0.0277628 -0.0556803 0.052988 -0.0113631 -0.136597 -0.0887248 0.0227841 -0.0214266 -0.0406156 -0.0380701 0.0979101 -0.0173061 -0.0265186 0.0305481 -0.0117917 0.0142167 -0.00569444 -0.0383738 0.00457149 0.0147675 0.0653617 -0.00666305 0.0728048 0.0562307 0.111016 0.0745964 0.109221 0.0424762 0.0162689 -0.0891197 -0.0387097 -0.0747729 -0.048764 -0.0655451 -0.00468076 -0.0455321 0.123292 -0.0131639 0.0139068 -0.0338471 -0.0938535 0.0928548 -0.11966 -0.0532562 -0.0822963 -0.0384585 0.0204777 0.0221984 0.0604599 -0.0642691 -0.09359 0.0578684 -0.00650625 0.042936 -0.0656041 0.0217788 -0.0975624 0.07493 -0.0244422 0.0208098 -0.083468 0.000923128 0.0152148 -0.0695099 0.0560397 -0.00417937 0.13422 -0.0139749 0.0946002 0.00957258 -0.0818393 -0.00826594 -0.0264396 0.131818 -0.051166 0.0486707 -0.0669357 0.00740989 -0.0665621 -0.061466 0.00976373 0.0877313 -0.0196769 -0.00911789 -0.00853045 -0.0657455 0.0236527 0.00512668 -0.16344 0.0243664 0.00457471 -0.06041 -0.0262282 0.0419656 -0.00826115 -0.0123664 0.0950959 -0.0401565 -0.0194936 -0.0578215 0.0632531 -0.00319502 -0.00906311 -0.0403649 0.0310914 0.0908762 -0.0153402 -0.0430785 -0.0134772 0.0421247 -0.0670933 -0.0119719 -0.0445274 -0.0620729 -0.0627835 0.0596965 0.0164094 0.0282651 0.0124051 -0.0359159 -0.0149839 0.0354142 -0.0919252 -0.0262356 -0.0413399 0.0125597 -0.0122749 0.0322908 0.111523 -0.0439347 0.0123839 0.0397269 -0.0634144 -0.0723031 -0.0789233 -0.0182076 0.0784987 0.0117723 -0.0107023 -0.00546381 0.0725739 0.0273265 0.0243211 0.0306357 -0.0163884 0.0307842 0.0585007 0.0734867 0.099089 -0.0248589 -0.0257097 -0.0318231 0.03451 0.00601754 0.0216307 0.0152581 -0.0430877 0.0093335 -0.0370543 -0.0177625 -0.0731615 -0.0790016 -0.0687429 -0.0347449 0.0462702 0.0541932 -0.0976085 -0.0281977 -0.0474292 -0.0254675 -0.0214505 -0.0652056 -0.0138785 -0.0375954 -0.00421111 -0.017167 0.00466594 0.0141893 0.0087748 -0.0242196 0.0666589 0.0306706 0.0848223 -0.0458065 -0.0204028 -0.0931719 -0.06594 -0.0483394 0.0416883 -0.0206938 -0.0513495 -0.0494522 0.0968889 -0.00735336 0.041264 0.0706284 0.018901 -0.0106219 -0.021755 -0.104591 -0.0853175 -0.0551507 0.0429163 -0.0797017 0.0188445 0.0858424 -0.0387327 -0.00719993 0.0103676 0.0382152 0.0613985 -0.00848912 -0.102629 -0.0226597 0.0262892 -0.0366085 -0.0305062 -0.0034058 -0.0369715 0.0248489 0.00240307 0.0145068 0.0330348 -0.0185183 -0.115258 -0.093932 0.0981306 0.0558846 0.00827763 -0.0653467 0.00806741 0.020584 0.0274504 -0.0454016 -0.0556023 -0.0521235 -0.00171162 0.0561056 -0.036041 -0.0154545 -0.0222794 -0.0451821 -0.00739315 -0.071506 0.00280278 -0.00224047 -0.135969 -0.070645 0.048341 0.00774178 0.0472806 -0.0232834 -0.0121252 -0.090064 -0.0257088 0.0306848 0.00510767 -0.00409166 -0.00296461 0.0563925 -0.0315864 -0.0414611 0.00431819 0.0357604 0.0290687 0.0508522 0.0576016 -0.122908 -0.0107001 0.0429382 -0.0227652 0.0162506 0.0683259 -0.0708548 -0.0614653 -0.116444 -0.118927 0.0487687 -0.0109846 -0.0197237 0.0583606 0.105205 0.015999 -0.0498682 0.0782327 0.0422111 0.0422782 -0.0559558 0.0433772 -0.0398895 0.0240195 -0.0275205 0.0662456 -0.00304332 -0.0485163 0.0549842 0.0129422 -0.0821853 0.0283883 0.0548669 0.00503612 0.00285938 -0.120754 -0.0318879 -0.00329901 -0.0400816 0.00185223 0.0223049 -0.0179572 0.0934044 -0.0449562 -0.0961427 -0.0373226 0.072867 -0.00722579 0.0570128 -0.0737804 0.0187805 0.0133967 -0.0181104 -0.0752298 0.0454087 0.00328091 -0.0203985 0.0427514 -0.0669749 0.056211 0.0631904 -0.0198652 -0.027066 -0.134676 -0.0513542 -0.0803104 -0.0839365 -0.102815 0.0941117 0.275721 -0.0555727 0.0486536 -0.0526205 0.164252 -0.0757752 0.0250929 -0.0107854 0.00578091 0.0707309 -0.00450777 -0.0644854 0.0432574 0.0453226 0.139466 -0.0965403 0.0771075 -0.000862598 0.00955486 0.123414 0.00928689 -0.0456449 -0.0546415 -0.0530604 -0.127494 0.0801644 0.0818373 0.108831 0.131619 -0.00340097 0.0626526 -0.097438 -0.0271927 0.0805411 -0.0281209 0.0610284 0.00665415 -0.07703 0.00763907 -0.0256187 0.0223459 -0.044177 -0.0117032 -0.0336617 -0.040282 0.0297849 0.140822 -0.00374749 0.0094777 -0.0576248 -0.00257482 -0.107324 -0.0186301 0.00444807 0.0312651 0.076832 0.0494381 0.0129472 -0.0206314 0.00142007 0.0762064 -0.0566424 0.0272583 -0.0222083 0.00901775 0.0336895 -0.00466028 -0.0629147 0.0653736 -0.0931568 0.0174157 -0.0575001 0.0093074 -0.108071 -0.0617235 0.0646418 -0.035339 0.0161919 -0.0694087 -0.0445094 -0.0781528 -0.126025 0.0294942 0.0286164 -0.0119581 0.0452252 -0.105129 0.0158626 -0.0444615 -0.0409282 -0.0905339 -0.0147112 -0.0717336 0.0535576 0.0145877 -0.0571877 0.0525778 -0.00942469 0.0167027 -0.054461 -0.0255998 -0.0153654 0.0726513 -0.0808112 -0.0195623 -0.0937849 -0.0951024 -0.0203391 -0.0385447 -0.0656918 -0.0336789 0.0738366 0.0647603 0.10733 0.00482437 0.0128361 -0.0310321 -0.0250567 -0.073727 -0.0706804 -0.0381737 0.0105366 0.000187857 0.0398997 -0.0128167 -0.0276498 0.00530868 -0.124408 -0.0655802 -0.0284168 0.0040619 0.0158129 0.014967 0.00297223 -0.0136229 -0.0234695 0.0073188 -0.0546335 0.00318144 0.0733188 0.00544615 0.0194667 0.0125281 -0.0121175 0.0297523 -0.0176819 0.00923474 -0.00540512 0.00505275 0.0235001 0.00996877 0.0197372 -0.136611 -0.00688001 0.0300761 -0.0695139 -0.0227125 -0.0310143 0.00848678 -0.0451056 0.00731231 -0.00236661 0.0174651 -0.0258231 -0.0632816 -0.0435247 0.0114327 0.0565607 0.00628618 0.11027 -0.0256635 -0.0332512 -0.0526348 0.0199695 0.0278958 0.0152119 0.137967 -0.0685735 0.0245242 -0.0760619 0.00398713 0.0589208 -0.0518281 -0.124057 0.0348544 0.0122756 -0.0505018 0.0248405 0.0711641 -0.0633103 -0.0312369 0.0305677 -0.0111521 -0.0274922 0.0457992 0.0685551 -0.00206142 0.0388758 0.0611758 0.0182289 0.00492614 -0.0931049 0.105071 -0.0666881 0.0659833 -0.00377433 0.104227 -0.0302161 -0.0496899 0.0374686 -0.0116123 -0.0623093 0.104112 0.0129449 0.0538609 0.0269742 -0.0995064 -0.0455597 -0.0407375 -0.0167201 -0.0357615 0.0761286 -0.0732992 0.0788884 -0.0319229 -0.0785397 0.0521761 -0.0698189 0.0767577 0.00223279 0.000203621 0.00776111 0.054594 -0.0243904 
  Neuron 5
   - Bias: 0.0776527
   - Weights: -0.00117979 0.00193309 0.049787 -0.0445703 -0.0169332 0.0501958 0.0382316 0.129073 -0.00477304 0.0212612 0.0935058 0.0513469 0.0159157 0.018664 0.0594085 0.0239338 0.00287864 -0.00966672 0.0452211 -0.033293 -0.0322879 0.031933 -0.0373976 -0.0813837 0.0452316 -0.0324113 0.0335217 0.0465987 -0.0386569 0.0300981 -0.0614037 0.00941284 -0.0619012 -0.0970972 -0.0149935 0.079171 0.0461413 0.0267531 -0.0179467 -0.0183142 0.0381082 0.0825968 -0.0627855 0.0537338 -0.0542809 0.0679836 0.0703086 0.00149283 0.0987242 0.029059 0.025608 -0.0340168 0.00867008 0.0898199 -0.0252893 -0.0125426 0.0227066 -0.0287942 0.0383381 -0.0706594 -0.060099 0.0664568 0.0868429 0.00919046 -0.00530006 -0.0150134 0.0305308 0.0115528 -0.0527809 0.061749 0.0826783 0.0284562 -0.0500866 -0.0282977 0.0294402 0.00676025 0.0430679 -0.0035319 -0.00373545 -0.0213932 -0.0635877 -0.0114501 0.0837257 -0.0303453 8.57568e-05 0.0619893 0.0299926 -0.0217483 -0.0408843 -0.0496011 0.0270018 -0.0833051 -0.056217 0.00378426 0.122996 -0.0207933 -0.00921357 0.114676 0.0420811 0.00374664 -0.048004 0.0976761 0.047527 0.0100418 0.0410068 0.0145888 0.123053 -0.0485494 0.0439146 -0.0727803 -0.0745671 0.0393968 -0.00131745 -0.0439263 -0.06788 0.02079 -0.0550187 -0.116855 -0.0700696 -0.0157452 -0.0621362 -0.0520313 -0.0733109 0.0322036 0.0112528 0.0996837 0.0818083 0.0487471 0.0791462 0.101953 0.0576413 0.0857846 0.00390961 0.0213047 -0.0235811 -0.0444079 0.0726855 0.0255071 0.0297406 0.0283917 -0.000915163 -0.00224201 -0.0425678 -0.0213877 0.00451169 -0.0241194 -0.0234575 -0.010177 0.0499414 0.0615973 -0.0493615 0.0414662 -0.0412354 -0.0323739 0.0106093 0.0346695 -0.04892 0.0845172 0.00823151 0.0633749 0.0702779 0.000487461 -0.0537921 -0.0904005 -0.0110045 0.028798 0.0392269 0.0583512 0.0147131 0.0156212 -0.108484 0.0151274 -0.0132855 -0.0561027 -0.121887 -0.0454841 -0.0830375 0.0369099 0.0226217 0.110975 -0.0757079 0.0488269 0.0249674 0.0213713 -0.0351817 -0.0357621 -0.0425458 0.0252359 -0.0480118 -0.0354711 -0.0584621 -0.10916 0.00855045 -0.0134468 0.00736878 0.0212052 0.023963 -0.0590028 -0.0456461 -0.0664684 0.00243375 -0.0263253 -0.156613 -0.0625167 0.0234166 0.0187568 -0.0699346 -0.0147688 0.0209332 -0.0182461 0.0181093 0.0834351 0.0300724 -0.0688684 -0.0881142 -0.0426426 -0.0386918 -0.0421275 -0.0930395 -0.0958034 0.042849 0.00614856 -0.0194538 -0.0042664 0.0624457 0.0649976 -0.00908229 -0.0178201 -0.0469579 0.0783233 -0.000564602 -0.108489 -0.00926487 0.0387241 -0.0444251 0.00350844 -0.01807 -0.0462743 -0.0621043 0.085455 0.0729893 -0.0723273 -0.0781172 -0.125275 -0.0884203 -0.0785354 -0.0438072 -0.0669475 -0.0444988 -0.0413505 -0.0683043 -0.0769665 0.0436921 -0.0083965 0.0233658 -0.0302947 -0.0595372 -0.107177 -0.0127675 -0.0975891 0.0401433 0.0418142 -0.0434162 0.128392 0.0377789 -0.016398 -0.031048 -0.110812 -0.0439178 -0.121853 -0.104791 -0.0836831 -0.0825225 -0.0566456 -0.113832 -0.0464497 0.0315984 -0.00466851 -0.00269626 -0.0155824 0.0363984 -0.0185623 -0.0633666 0.0657834 -0.00618925 0.105063 -0.0128111 0.0340002 0.064099 0.0670391 0.0487964 -0.0678583 0.115455 -0.167636 -0.0555127 -0.036615 -0.0446511 0.0236066 0.0476099 -0.010282 -0.0217065 -0.00899645 -0.0935843 -0.0367604 0.0396276 -0.0616586 -0.0407143 -0.0451906 0.0327523 -0.0159958 0.0254594 0.115072 -0.0303637 -0.0379863 0.0847928 0.117404 0.0721048 0.0643215 0.123254 0.147582 0.153135 0.00713722 0.0493353 0.120124 0.0988839 0.188718 0.148869 0.0949239 0.0557146 0.0503076 -0.0592485 0.0746039 0.0472069 0.0489861 0.0232283 0.041777 -0.0344585 -0.0162705 -0.00327002 0.0185924 0.0420668 -0.0448646 0.0939365 0.103708 0.205033 0.0444025 0.100178 0.235324 -0.0346798 0.0106582 -0.0350055 0.0516769 0.0762034 0.16684 0.111143 0.123975 0.0659476 -0.0152242 0.117377 0.113677 -0.0307477 -0.0850146 0.067071 0.00639519 0.0176292 0.0244361 -0.0134464 -0.0537806 0.0927663 0.0844234 0.044055 0.112076 0.0128222 0.114654 0.089269 0.0682705 0.0584788 0.0404608 0.0129224 -0.0549333 -0.0101559 0.0981883 -0.0153613 0.0184955 0.0379465 0.0736034 -0.0115294 0.092859 0.0642471 0.0279477 -0.106687 -0.0238603 0.0336115 -0.0124142 -0.0562644 0.000892863 -0.105278 0.0512241 0.0419794 -0.0311856 0.0318849 0.0847847 0.0794656 -0.0239578 -0.0197203 -0.0796531 -0.173303 0.0515841 -0.097577 0.118553 0.22432 0.112046 0.167312 0.0743667 0.0468335 -0.0266342 -0.0409515 0.0148608 0.0509269 -0.00113768 -0.024016 -0.0344787 0.112126 -0.0191084 -0.0488206 0.0319193 -0.0123811 0.0500702 -0.0134409 0.0380806 0.174053 0.0129562 0.0374623 -0.164306 -0.114631 -0.168272 -0.00299896 0.0998789 0.0775983 -0.0194398 -0.0194402 -0.0141241 0.0595875 0.0567648 -0.0708074 0.000624999 0.00251452 0.0340885 0.0268382 -0.025066 0.0471781 -0.0522835 -0.0548203 0.113465 0.0419345 -0.0480124 0.0884855 0.0634684 0.113223 0.0133483 0.058057 -0.0232494 -0.101112 -0.142239 -0.00397662 -0.0241541 0.107702 -0.0911167 0.0478792 -0.0242209 -0.0531913 0.00646665 -0.181349 -0.177387 -0.0199414 0.0406367 0.00442099 -0.0329338 0.0270289 -0.0764573 0.0310569 0.125712 0.0740194 0.0184066 0.00536161 0.0788594 0.0583341 0.121409 0.0205687 0.00415756 -0.0198972 -0.00994695 -0.0331011 0.0927805 0.0465231 0.0318168 0.129082 -0.0103139 0.0269212 -0.134436 -0.067313 -0.0207255 -0.103444 -0.00560366 -0.0273128 0.0107668 0.0083403 -0.0575489 -0.0177811 -0.011504 -0.0826536 -0.00157279 0.059306 -0.0154398 0.107369 0.10277 0.104212 -0.0186341 -0.110626 -0.0208121 0.0339736 0.0428066 0.0690427 0.0602733 0.00346494 -0.00177928 -0.0717435 0.0202815 -0.06919 -0.0841315 -0.0207529 0.0116426 0.00795489 0.0174212 0.0562306 0.100637 -0.0395343 -0.105758 -0.0229048 -0.00844862 0.0471027 0.0138283 0.0517969 -0.108729 -0.0223155 -0.0783522 0.0043959 -0.072182 -0.0359486 0.0325743 0.0353439 0.0175187 0.00455641 -0.0134182 -0.12235 -0.118227 -0.122188 0.012456 -0.0265731 0.0164124 0.0137905 0.027992 0.0212122 -0.0186299 -0.0441948 0.0446972 -0.107003 -0.0757365 -0.13693 -0.0229741 -0.0643218 -0.0872133 -0.0690764 -0.106053 -0.181718 0.0558931 0.0175182 -0.0180175 -0.0524084 0.0469646 -0.0333299 -0.149664 -0.0783587 -0.0935812 -0.0393292 -0.0206573 0.0446578 -0.0235194 -0.0903364 0.0630082 0.0543486 -0.0208004 0.0542524 -0.0430327 -0.0778978 -0.0470754 -0.0755641 -0.0307628 -0.0762515 -0.146149 -0.0575469 -0.102427 -0.0130716 0.0656222 -0.0231766 -0.012318 0.0644114 -0.11033 0.0576441 -0.0987388 -0.0727017 -0.0532039 -0.00198886 -0.0137342 -0.0574028 0.0299825 -0.0343397 0.0373779 -0.0856467 -0.00150067 0.0145362 -0.0453264 -0.156528 -0.054099 -0.105729 -0.0690053 -0.0501913 0.0247328 -0.00372821 0.0433039 0.0666583 0.0254748 -0.00136807 -0.0305188 -0.0788767 -0.051185 -0.0119072 -0.0364967 -0.0645924 0.0266271 -0.0503125 -0.0372285 0.0965579 -0.055305 -0.00639479 -0.0313089 -0.0556416 0.0533943 -0.0066096 0.00213141 5.49441e-05 -0.0532069 -0.0550891 -0.0269009 -0.093812 -0.00500787 0.0111982 -0.0235362 0.0295612 0.0306057 0.0182293 -0.0715465 -0.0010948 -0.0593577 -0.051691 -0.0295374 -0.0567287 0.0520561 -0.0116296 0.0245197 0.0369434 -0.0562876 -0.0463333 -0.0407606 0.0286017 0.0218077 0.0415735 -0.00679563 0.0189873 -0.0129165 -0.0671843 -0.0367464 -0.0414789 -0.0769851 0.0175214 0.0320549 -0.0667584 0.037489 0.0287107 0.0161202 -0.0869954 -0.00844212 0.123171 0.022752 -0.00527398 0.0523844 -0.0544571 0.0123273 -0.0628514 -0.0105523 -0.0110833 -0.0114469 -0.00261861 0.0602281 -0.0946353 0.0379028 -0.0227455 0.0516269 -0.0315114 0.0612648 -0.0830244 -0.0392662 -0.046299 0.147674 -0.00300125 0.0821074 0.0301452 -0.043495 0.0031454 0.00737969 0.076629 -0.037324 0.0480874 0.0734081 0.0545581 -0.0115897 0.0533276 0.01085 0.0233208 0.00948703 -0.114246 0.106457 -0.0592132 0.0427294 0.0391438 -0.0882349 0.020307 -0.0424302 0.0254593 0.0411438 0.00735513 -0.0957707 -0.0065843 0.104399 -0.0445836 0.0142901 -0.0158826 0.0780245 0.0229055 0.0859165 -0.0278522 -0.0225723 0.115085 -0.0421632 0.0120717 -0.0129023 0.0526406 0.0496249 -0.102927 0.0662921 0.159811 0.00939377 0.0560378 -0.00902846 -0.0654741 -0.0162031 0.00901335 -0.00133858 0.0413681 0.0218456 0.0242937 0.0775077 -0.00972067 0.0571879 -0.0348637 0.0469743 0.0502981 -0.000698322 0.0249848 0.0830164 -0.0579717 -0.0543138 0.0660269 0.0161617 
  Neuron 6
   - Bias: 0.0228812
   - Weights: 0.0628558 -0.0744993 0.0161624 -0.0354909 0.00834754 0.0295906 -0.0563806 0.0878377 0.0690548 -0.049921 -0.0974626 -0.0412571 0.03713 -0.0343786 -0.0497867 0.0611137 0.0288473 0.0907248 0.0554593 -0.00853231 -0.0946863 -0.00282777 0.0203389 0.060537 0.0588273 0.023396 0.01348 -0.00255044 0.0375433 -0.0447184 -0.0397582 0.0852973 0.0475136 0.0731913 0.0861693 0.0480944 0.0398052 -0.104903 0.0383002 0.00149433 -0.0412609 -0.00522888 -0.0347476 0.016714 -0.0736122 0.00259896 0.0415092 0.0657424 -0.00767238 -0.0326375 0.0716466 0.0169582 -0.0486838 0.0515017 -0.0222683 -0.0623906 0.0127338 0.0247643 -0.0926501 0.0992141 -0.0057105 -0.0149846 0.0327227 0.168311 0.0291948 0.0736399 -0.0566743 -0.0103785 -0.0244078 -0.0823423 -0.0268061 0.0792819 -0.0866603 -0.0109251 0.0688913 -0.00714762 -0.0491533 0.0196278 -0.023095 -0.0530475 0.0757074 -0.020587 -0.0237712 -0.012338 -0.0149219 0.0106124 -0.00691077 0.114357 0.0359586 0.0102004 0.0921099 0.0503023 0.0254468 0.00170747 0.00776324 0.0615083 -0.0265496 -0.0267804 0.020845 0.0105935 -0.13849 0.034085 -0.00737761 0.0626072 -0.00969733 -0.0701108 -0.0137368 0.0193909 -0.00917198 0.017667 -0.0729985 0.0657068 0.0229881 -0.0649355 -0.0411006 -0.018761 -0.0238597 -0.0507344 0.0535179 0.0614179 -0.00916086 -0.0358703 -0.00427293 -0.0168271 0.0286366 0.0466701 -0.00903131 -0.0379179 0.00260383 -0.0110331 -0.0342261 0.0692803 0.0928407 0.0817437 -0.0943861 0.0325979 0.0167263 0.0593153 0.0530427 -0.0759597 0.0275372 -0.0339317 -0.0247332 -0.0481327 0.0213664 0.0100994 -0.043113 0.0437687 -0.0148587 0.0446352 0.0302699 0.0171353 0.0249356 -0.0325721 0.118725 0.0861501 -0.034596 -0.0738085 0.0348791 -0.0101611 -0.0178746 0.0253155 -0.0446528 0.0301167 -0.00134327 -0.0904101 -0.0334232 -0.000158792 0.0572087 0.102772 0.104892 -0.04755 0.0230081 0.0631177 0.0583161 -0.012522 0.066366 -0.0367481 0.0679478 -0.0187859 -0.04391 0.06431 0.0411533 0.0422714 -0.0198784 -0.018453 -0.112627 -0.0651165 -0.0746077 0.00443057 0.0781381 -0.0173867 -0.0316262 -0.012577 0.0607609 -0.0071684 -0.0136925 -0.0284771 -0.0433771 0.0233299 -0.0178538 0.00355411 0.0325012 -0.0195744 -0.00132747 0.00647287 0.0253761 0.0361646 -0.0359125 -0.0319574 0.0746374 0.0879223 -0.0124388 0.0320409 -0.0408152 -0.0602233 -0.0281409 0.0572432 -0.0855947 0.0769054 0.0690524 0.00567152 -0.0235559 0.0885794 0.0136581 -0.058032 -0.0303333 0.0600314 -0.0118287 -0.0728508 -0.0098697 -0.0253578 -0.0488673 -0.0308332 0.0320052 0.0571599 0.083022 0.0730673 0.0334058 0.00503759 -0.0498498 0.027078 0.00898316 -0.0661384 -0.00344723 0.071492 -0.0255316 0.0865903 0.072737 0.0500835 -0.0281367 0.0256994 0.00296132 0.0313563 -0.0234508 0.0627159 -0.0568728 -0.0237605 -0.0451039 0.0221439 0.016003 0.0374963 0.0726418 -0.0306962 0.0335689 -0.0622401 -0.0239499 -0.0164825 -0.0454541 -0.0177409 -0.0462746 -0.00102099 0.048654 0.104164 -0.0325204 0.0566427 0.0517267 0.0630929 0.0142611 0.0345817 0.0328367 0.101646 0.0440702 0.0486969 -0.132346 0.0329106 -0.056262 -0.071691 0.0871969 0.0130225 0.11258 -0.0301254 0.0654063 -0.0687709 -0.00205436 -0.117448 0.00217808 0.0559154 -0.00802096 -0.0821824 0.0398596 0.0126151 0.00479628 -0.0198571 0.0572373 0.0217044 -0.0853207 0.0196288 -0.0395615 -0.0710455 0.0342839 0.0165132 0.0374653 0.027985 -0.0791767 -0.0279224 0.0493096 -0.0162729 -0.0497824 0.0168731 -0.107555 0.00809017 -0.00569685 -0.103212 -0.00876262 -0.104497 -0.00354469 -0.0787517 0.0531077 0.0367075 0.00250651 0.0544938 -0.0127814 0.0137284 0.00473929 -0.0135351 -0.0730571 0.050051 -0.0188059 0.0914055 -0.106665 0.0655469 0.01649 0.00730696 -0.0551745 0.0142757 0.0111673 -0.0357547 0.00467392 -0.0897371 -0.0897908 -0.0394561 0.0976602 0.0469684 -0.0124491 0.0193666 0.0216318 -0.0165854 -0.00327202 0.134488 -0.0157156 -0.0683696 0.0419842 0.0433027 0.0292903 0.032854 -0.000140282 0.0457908 0.0133869 0.047102 0.0379882 0.0876739 0.0239535 -0.0495702 -0.0739082 -0.0650761 0.0260243 -0.0465584 -0.0686539 -0.0920298 -0.0633723 -0.00796191 -0.0204655 0.0222644 0.000479232 -0.0375323 0.0263872 -0.0298283 -0.00592868 -0.0635673 0.0353095 -0.0550687 0.0793212 -0.0606178 -0.0577328 -0.00525485 -0.0632378 0.0383042 0.0245188 0.0443286 0.0690488 0.0646878 0.0299388 -0.0889064 0.09543 -0.0412756 -0.154513 0.0332071 0.0402953 0.00752544 0.0906586 -0.0222968 0.0102961 -0.0838496 -0.00903152 -0.0137139 0.0745512 -0.022526 -0.0182473 -0.049657 0.0331393 -0.00142685 -0.0426612 0.0240921 -0.0655854 0.0896428 -0.056499 0.0461882 -0.0655212 -0.0755229 -0.0066243 -0.00214287 0.0469056 -0.0432728 -0.0640978 -0.0623796 -0.0266451 0.139287 0.0735423 0.00372988 -0.0142107 -0.0207929 -0.0133342 0.0319516 0.00864216 0.0538798 -0.0396349 -0.00182 -0.0397502 -0.0109257 0.0561668 -0.0237801 0.0812582 0.0213777 0.0511279 -0.0747685 -0.069594 -0.00293632 0.0573165 -0.0999335 -0.0165138 0.0172319 -0.0177745 0.0559849 0.025318 -0.00261846 -0.0130322 -0.00838374 -0.102249 -0.0809678 0.0309472 -0.0104545 0.0938826 -0.00626786 0.0174772 -0.0646761 0.076107 -0.0300216 -0.0755811 -0.0939946 -0.0194584 -0.0186503 0.0122473 -0.0669886 -0.0102241 0.112634 -0.0332132 0.0604786 -0.127646 0.0204174 0.0354905 -0.0345934 -0.0501489 -0.055121 0.0903724 0.0918372 0.0858251 0.0286992 -0.015837 -0.0145642 -0.0680181 0.0603351 0.0616386 0.0241357 -0.0276341 0.00870086 -0.0902648 -0.0558489 0.00468269 -0.00741021 0.0552766 -0.064311 0.0129433 0.0398643 -0.127393 -0.0078267 -0.054036 0.0278475 0.0440225 0.0500665 -0.085298 -0.0442918 0.0238988 0.0071662 -0.0138386 -0.00907028 0.0767697 0.0423255 0.0207578 -0.0653162 0.00511072 -0.0475799 -0.064363 0.0651269 -0.116064 0.0117322 -0.0701037 0.0138202 0.0877657 -0.00509384 0.00375006 -0.0707516 -0.0621645 -0.116422 -0.0172661 0.0163461 -0.0133923 0.0307188 -0.0360666 -0.0176207 -0.0802492 -0.02136 -0.0735447 0.0257828 0.011364 -0.00542576 -0.0471172 -0.0271669 -0.000174032 -0.0389113 -0.00435806 -0.0523598 -0.119019 -0.0249616 0.0104318 0.0506574 0.123863 -0.0775236 -0.0583413 -0.0618101 -0.166367 -0.0268018 -0.00511832 0.0187294 -0.0087267 -0.0179105 -0.14528 -0.0965877 0.0407667 0.0431628 0.0361898 0.0245296 0.0248853 0.0421664 0.00738868 0.0893233 0.0122945 -0.00496884 0.0150906 -0.0500533 -0.0156132 0.0180562 -0.0149529 0.0258291 -0.0285266 0.0182893 0.0111505 -0.0318299 0.0145095 -0.0482659 -0.0913391 0.0112148 0.00100772 -0.00402486 -0.064787 -0.0735081 -0.00758167 0.00976071 -0.010038 0.0189671 0.0491611 0.0714677 -0.0474899 -0.0345654 0.0077944 -0.0257186 -0.0849687 -0.0089627 -0.00498609 -0.0482329 -0.0401433 0.0346841 0.0434491 0.00424988 0.0131829 0.0338823 -0.0358346 -0.0336969 0.0437067 -0.00670171 -0.0515288 -0.116396 0.0950797 -0.0820102 0.0368489 0.013237 -0.0211066 0.0150183 0.0125336 -0.0711005 -0.0647347 -0.0369955 0.0503332 -0.0511806 -0.0287557 0.0118271 0.0218724 -0.0798212 -0.130477 -0.0483237 -0.0577629 0.125837 -0.0129948 -0.0528256 0.0983456 0.0285291 0.0829421 0.0246077 0.0121237 -0.00522757 -0.0319766 -0.0103609 0.049027 -0.0329658 -0.0151157 0.054147 -0.0773968 0.0214865 -0.0304543 -0.0495046 -0.0336264 -0.0384741 -0.0329299 0.00921517 0.0223446 0.0911891 -0.00290064 0.014798 -0.141612 -0.0589778 0.0143849 0.0189899 0.0522914 0.026706 -0.060254 0.0108484 0.0437654 -0.0700267 0.0285327 0.0500145 -0.0670912 0.0345692 0.0166684 -0.138215 0.0344329 0.0875078 0.0204826 0.0633807 -0.0657763 0.0138178 0.0177196 0.00678629 -0.0265129 0.00776924 -0.0721323 0.0717043 -0.0643998 -0.0388276 0.0117826 0.0801248 -0.00309473 0.0377678 0.0253858 -0.0102652 -0.0365783 0.00222751 0.020629 0.0649148 -0.0701255 0.0218937 -0.0109481 -0.0978809 0.068874 -0.0172252 0.0644574 0.0524868 -0.0122997 0.063396 -0.00858404 0.020424 0.0173556 -0.0634767 0.00967659 -0.0356295 -0.0205812 0.0191547 -0.0355868 0.077082 -0.0681398 -0.0372508 0.000569249 -0.0126686 0.0733773 0.0466404 0.0482066 0.027238 0.00473947 0.0581187 -0.018906 -0.0112165 0.0628022 0.0477401 -0.0206451 0.0135858 -0.0253127 -0.0770249 -0.0332176 -0.0422799 -0.0509478 0.0694477 -0.0688783 0.00828046 -0.0516316 0.016701 0.00817663 0.0906972 -0.063204 0.0799852 0.00232792 0.00953875 -0.0172833 0.0225846 0.0326978 -0.0896171 0.102364 -0.0514716 -0.105088 -0.0111321 -0.100006 0.0333197 0.0295839 -0.0229141 0.0556379 -0.0165987 
  Neuron 7
   - Bias: 0.115929
   - Weights: -0.033564 -0.0526459 -0.116992 -0.0345437 -0.0265343 -0.0204364 0.0285757 0.0115066 0.0233655 -0.0453513 -0.0184223 0.054367 0.0265002 0.0209218 0.0431064 -0.0489615 -0.0103983 -0.00287439 -0.0422994 -0.0532271 -0.0874117 0.00334913 -0.0897525 0.0473736 -0.028681 0.0578015 -0.0642255 0.0086522 0.013386 -0.00274044 -0.0314155 0.0182858 -0.0330048 -0.0541307 0.00981842 -0.0478886 -0.0166706 0.0212941 -0.0203671 -0.0227693 -0.051395 0.00733238 0.00552958 0.101256 -0.0615295 0.038206 -0.0443749 -0.0918226 0.039934 0.0341463 -0.0596438 0.0162313 0.0597121 -0.0856342 0.0481048 0.00171311 0.00948534 -0.0185873 -0.00864612 0.0521242 -0.0715444 -0.0924076 -0.0505975 0.0198022 -0.0607608 -0.0444475 0.0035556 -0.0735502 0.040029 -0.0093071 -0.00492611 -0.0259489 0.124573 -0.0338288 0.00192439 0.0187305 0.0117456 -0.0724095 -0.00986259 0.0741289 0.00291988 -0.0379581 0.065566 0.0540615 -0.00551932 0.0407365 -0.0515344 -0.0147884 0.00347206 -0.0161729 -0.0232146 0.023358 0.0154334 0.0565158 0.0132562 -0.0438357 -0.0540337 0.0465205 0.00186419 0.0559357 0.0221886 0.0644822 -0.0251224 -0.0227632 0.0441847 0.017803 -0.0535315 0.0136007 0.144969 -0.0330531 -0.10905 -0.00820721 -0.0120441 0.0049803 0.0128957 -0.0101739 -0.0593623 -0.0359183 0.0534166 -0.0220251 0.013283 0.0176597 -0.0846062 -0.00622099 -0.138085 0.0129874 -0.0454182 0.0338229 -0.0801144 -0.0383858 0.0945402 -0.0347415 -0.118428 -0.0470877 0.00455548 -0.0915564 -0.0235013 0.0120914 0.0677826 -0.0485319 0.0337904 -0.0177444 0.0175877 -0.0109771 -0.0855099 -0.0472596 0.00333557 -0.0291168 0.0412777 0.0452081 -0.0884588 -0.0368701 -0.0743052 -0.10449 0.0236236 -0.0399164 -0.139936 0.00352828 -0.0230131 -0.0361609 -0.0340929 -0.00633574 -0.113581 -0.00753101 -0.03495 0.0765271 0.0831235 -0.0588303 0.0870062 -0.06431 -0.0278401 -0.0136285 0.0323279 0.0193658 -0.00979688 0.0200246 0.0281612 -0.11883 0.0240934 -0.0794863 -0.14375 -0.0355527 -0.0432903 -0.109523 -0.0887796 -0.0161681 -0.148472 -0.0038373 -0.0983485 -0.0889787 -0.110761 -0.117029 -0.0859297 -0.102355 0.0443098 -0.0288579 -0.0721785 0.0352278 -1.99594e-05 -0.00780737 0.0609245 -0.00674633 0.110813 0.0854341 -0.0435862 0.00711097 0.0422876 -0.0826027 -0.0148956 0.0290092 -0.0886965 -0.114706 -0.0727441 0.0330916 -0.000797407 -0.020064 -0.0695136 -0.103517 -0.0949545 -0.112619 0.00332323 -0.0157889 -0.0707224 -0.0700136 -0.0198548 -0.0493961 -0.0211486 -0.0596185 0.115637 0.0345777 0.00904481 0.0896218 -0.0400626 -0.0362272 0.00363668 -0.0209304 0.0609426 0.0762275 -0.0906411 0.11279 -0.0293594 -0.10727 -0.0797817 0.0202289 0.0785735 -0.0216036 -0.0191805 -0.0215894 0.0189401 0.0113871 0.0081182 -0.0271688 -0.0524804 0.0146012 -0.0513902 -0.0164837 -0.0521211 0.0110456 0.0025182 -0.00515949 0.0495638 0.0494027 0.0761032 0.0437111 -0.0718057 -0.103326 0.0527102 0.0112664 -0.00505506 -0.105771 0.0184524 -0.0526644 -0.0102953 -0.100627 -0.0277 0.0346189 0.035824 0.0425 -0.0394549 -0.0290568 -0.063579 -0.00720935 -0.0400675 -0.0474833 0.0530169 0.00760191 0.0226121 0.0111095 0.0234651 0.00107739 -0.00103487 0.00220527 -0.0111545 -0.0886955 0.128364 -0.0103177 -0.0717418 0.0664054 0.0347048 0.0301759 -0.044805 -0.129082 0.0488617 0.0938378 0.0488857 0.091531 -0.0206864 0.00575112 -0.0954683 0.00909797 0.00423962 -0.106213 -0.00943541 0.0371838 -0.00279522 0.0817045 0.0339751 0.0163383 -0.0903793 -0.085329 0.0272487 -0.0254543 -0.0157963 0.0201732 -0.0770266 0.00309974 0.0149669 -0.0240905 0.078145 0.0527629 -0.102615 0.000156746 0.0752103 -0.00339841 0.0745799 0.00395743 0.000549875 0.0282117 0.0170433 0.0152969 0.0785056 0.0477224 0.0284599 0.122138 0.111851 -0.00579302 0.0851801 0.0719009 0.0171506 -0.0815887 0.125688 -0.0165268 -0.0216563 -0.0150285 0.0629383 0.0392306 0.0156818 -0.0435307 0.077675 0.00546044 0.0372988 -0.0190401 0.0198898 0.0468422 -0.00343227 -0.0079931 -0.0587923 0.00448646 -0.0218248 0.0240386 0.0318692 -0.0230703 0.086858 -0.0410312 0.0338922 0.0526425 0.13104 0.219778 0.0621723 0.0744246 -0.0418619 0.0198963 0.0374244 0.0945539 -0.0476798 0.0481666 -0.0343519 0.0346855 -0.105086 -0.0227093 0.0722933 -0.0499496 0.00394863 -0.00902201 -0.0140707 -0.0758012 0.147959 0.0293643 0.0162443 0.0128728 0.0609736 0.0250152 0.0905843 0.105138 0.107679 -0.00478236 -0.00418148 0.157991 0.148766 0.0264558 0.108131 -0.042602 0.0804222 0.00834106 0.0708741 0.0772434 0.0427871 -0.00452933 0.0308866 0.0466989 0.00616522 0.0219303 -0.0210928 0.0215884 -0.0155526 0.0714664 -0.0149753 -0.0175233 -0.0646657 -0.0314441 0.00632405 -0.0015719 0.0327441 -0.0331508 -0.0443919 0.152535 0.158287 0.122428 0.0721756 0.0876979 0.00473228 0.0121215 0.0651986 0.0171827 -0.0391836 0.013046 0.0295058 0.00218639 -0.0295366 -0.0743237 0.0380705 0.0296936 -0.0121383 0.0629788 -0.0471911 0.0306516 0.0148367 -0.0768364 -0.0999361 -0.0959435 -0.0268528 -0.0890773 -0.049506 0.134067 0.0603855 0.0469102 -0.00723086 -0.0266822 0.024976 -0.11896 -0.0621826 0.0327041 -0.0259174 0.106826 0.000516178 0.0405436 -0.0613226 0.0300605 -0.102621 0.010011 -0.00240959 0.0669024 -0.02355 -0.0282232 0.053925 -0.0198116 -0.0505194 -0.0861443 0.0698766 0.0403988 -0.00741478 -0.00869156 0.060386 -0.0301413 -0.0581911 -0.0190151 0.0480179 0.053064 -0.0803374 0.0580982 -0.106336 -0.0220052 0.0019696 -0.0742293 -0.00638286 0.0275791 -0.027635 0.0472441 0.0548599 -0.00571349 0.0422728 0.00507178 -0.0141209 -0.029172 -0.0135632 -0.0813712 0.108988 0.104705 0.0867287 0.164702 0.0308645 -0.0241706 -0.100934 -0.0426786 -0.0492264 -0.0398937 0.0875701 0.0761101 -0.00436892 0.0230451 0.00977754 0.00667807 -0.0151037 -0.0761167 -0.0442899 0.0285966 -0.0857066 0.0610766 0.0521523 -0.0167228 -0.136103 -0.00435234 0.0811574 0.084569 0.00739357 -0.0205031 0.0877722 0.0319632 0.00462576 -0.0883118 -0.0772386 -0.0795368 -0.0297702 0.000316638 -0.0599604 -0.0222409 0.0898961 -0.0487893 -0.0159318 -0.0356889 -0.0199292 -0.0502295 -0.00957284 -0.129549 -0.0291616 0.0377912 -0.006776 -0.0648414 0.00227278 0.0357499 0.142961 0.104086 -0.0819826 -0.108679 -0.0619427 -0.0370141 -0.164218 -0.0565805 -0.0173164 -0.157326 -0.0250381 -0.0371519 -0.0870796 -0.00460387 0.0222677 0.0933348 0.0374052 0.0159798 -0.0801663 -0.00986993 0.0188345 0.0443629 -0.0675584 0.0809172 0.0118751 0.0525878 0.048256 0.0064864 0.0377048 -0.0767097 0.0849181 -0.0270251 -0.0931593 -0.117541 -0.145649 0.0842083 -0.0163257 -0.0513584 -0.0411041 0.00370665 -0.0435949 0.010031 -0.0629746 0.028703 0.0420531 -0.00991817 -0.0119794 -0.0445856 0.0206341 -0.0184771 -0.0362115 -0.0775354 0.0276142 -0.0189873 -0.0350512 -0.0037601 -0.0120112 -0.0152867 0.00397076 -0.120542 -0.0931179 -0.0910215 -0.116389 -0.0619693 0.0235799 -0.00706308 -0.104669 0.0632734 0.00959478 0.0812444 -0.00290865 0.00327438 -0.0558033 0.0351727 0.00219189 0.0493346 -0.0628244 0.0436349 -0.00233102 -0.0592731 -0.0777907 -0.116466 -0.0390485 -0.112343 -0.082001 -0.0645517 -0.0201179 -0.11371 -0.0735183 -0.0975104 -0.0284456 0.0536171 -0.0711776 0.0124152 -0.00146469 0.0291734 0.0117198 0.0164251 0.042413 0.021469 0.0189406 0.0415958 0.0238384 -0.0285216 0.0624123 0.0273577 0.00968318 -0.0529794 -0.0907464 -0.0454063 -0.126854 -0.0474073 -0.0649792 -0.0890305 -0.12126 -0.145701 -0.00230775 -0.02305 -0.00104971 0.014431 -0.0848925 -0.0718307 -0.0377056 0.048274 0.0917508 0.0587279 -0.0542095 -0.0272558 -0.0342946 0.0637471 0.0298971 -0.0180306 -0.0809675 -0.0572724 -0.00425649 -0.0475968 0.0159296 0.0295946 -0.101506 -0.0318466 0.0167779 -0.000932954 0.0303984 0.047767 0.0121256 0.111766 0.028224 0.0387823 -0.0195737 -0.0479421 -0.00473892 -0.020601 -0.0309403 -0.0316475 0.0345829 0.0912849 0.0119896 -0.0318285 0.0259976 0.00352086 -0.016448 -0.0218279 0.0138365 -0.0210051 -0.0474343 0.0247911 -0.0460003 -0.0663783 0.0463648 0.00370884 -0.0123971 -0.0404624 -0.00561136 -0.014603 -0.0271608 -0.0423809 -0.0118613 -0.0372932 0.0153305 0.00689639 0.0282269 -0.0157979 0.00485134 0.0789248 -0.0333864 -0.0610606 -0.0278633 0.0573616 -0.0878129 -0.0521128 0.0599814 0.0299607 0.0139679 -0.0111115 0.00706013 -0.0703305 0.05555 -0.0110146 -0.0954915 -0.00932758 -0.0465396 -0.108402 -0.0125462 -0.0444667 -0.0444976 0.073461 0.058535 0.0899807 -0.0723716 -0.0317579 -0.0790012 0.007696 0.0104995 0.0229448 
  Neuron 8
   - Bias: 0.00572991
   - Weights: -0.00537422 0.00092293 -0.0160797 0.0325812 0.0208698 -0.0273782 0.0329722 0.0765284 -0.126605 0.027944 -0.00589658 0.0269738 -0.0462835 -0.0162082 -0.0546139 0.0956571 -0.0219552 -0.0312685 0.0550238 0.0404578 -0.0687914 0.0423627 -0.0802748 0.00764485 -0.0470945 0.0200351 -0.00624861 -0.0153734 -0.00883951 -0.0553796 -0.0772181 0.0336653 -0.0119646 -0.0545807 -0.0821733 0.029009 -0.00423898 -0.0649446 -0.0359786 -0.0580618 -0.01721 0.113928 0.0453335 -0.108195 -0.0604435 -0.00505768 0.00609146 0.026231 -0.0345473 0.0391019 -0.0260413 0.0252051 -0.0153565 0.0284283 -0.0279271 0.0129069 0.0415655 0.0231964 0.0189238 -0.0422552 -0.0149813 -0.0415694 0.0608177 -0.0219487 -0.00721626 0.0640494 0.0917557 0.0432901 -0.035536 -0.0147271 -0.0318155 -0.109437 -0.0145743 0.0340765 0.0109068 -0.0367801 -0.0192522 -0.0064296 -0.0260876 -0.0754405 0.0902343 -0.0494335 0.0381036 0.0352915 -0.0619603 0.0105916 0.029095 -0.05083 -0.0595275 0.0563621 -0.041261 -0.000362684 0.00705029 0.0297321 -0.027037 0.110281 0.0868471 0.0924512 0.00618042 -0.0347372 -0.0111405 0.00224384 -0.0088283 -0.00730936 -0.112347 0.0103506 -0.00883674 -0.057965 0.0249872 -0.0324093 0.125304 -0.0456318 0.017878 -0.0361016 0.00771613 -0.0776943 -0.0358207 0.0142824 -0.00707525 0.0924175 0.0328226 0.0757559 0.078037 0.106484 0.143998 0.0222804 0.105432 0.148831 0.0509308 0.110263 -0.0123158 0.0209643 -0.00776406 0.0947792 0.0757967 -0.183763 -0.0570638 0.000666894 0.080042 -0.023512 0.0438429 -0.0862548 -0.0691931 0.0755848 -0.00708224 -0.0713705 0.104827 0.057411 0.110536 -0.0270965 0.0259164 0.0548891 0.0634336 0.0716929 0.00881256 0.0228706 0.0720964 -0.0920405 0.0681561 0.0763074 0.170218 0.00961223 -0.119067 -0.091664 -0.0248039 0.0316893 -0.0305928 -0.0595016 0.00120822 0.00164034 -0.0471038 -0.0449976 0.0173383 -0.0137615 0.0397471 -0.0499314 -0.0989649 -0.129266 0.0137804 -0.0600968 -0.0643893 0.10353 -0.00316413 0.032743 0.0859721 0.163585 0.0474577 -0.0231183 -0.0302597 0.021553 -0.0289185 -0.154445 -0.0588176 -0.103289 -0.00992599 0.000918354 0.0706003 0.108259 -0.0324929 -0.0101357 -0.052432 0.063053 -0.0426006 -0.041913 0.052995 0.0603096 -0.0455682 -0.0984247 0.0937239 -0.00139074 0.100233 0.0434325 0.16867 0.0670094 0.107552 0.0319022 0.0369758 0.0925609 -0.0189092 -0.177646 -0.0463168 0.0551604 -0.0550356 -0.0233271 0.0442532 0.0687461 -0.0265657 -0.0417317 0.0296051 0.0104741 0.0512703 0.0551467 0.0621234 -0.0518958 0.0479821 0.00416694 -0.140233 -0.00353811 -0.0793052 -0.0105688 0.180166 0.128556 0.10645 0.141982 -0.0409692 -0.0418151 -0.102092 -0.140017 -0.106775 -0.0514698 -0.0226865 -0.0198922 0.05688 0.0260804 0.0193903 0.0115306 -0.0104017 -0.086425 -0.091593 -0.0172884 0.101721 -0.173204 -0.0586163 -0.0923212 -0.061824 -0.10788 -0.157592 0.0095301 0.131925 0.0783422 0.163665 0.181654 0.0777062 0.0245255 0.0570247 -0.1162 -0.139266 -0.0129905 -0.0687925 -0.0272657 -0.041429 0.0613358 -0.00479706 -0.0860606 0.0353417 -0.108359 -0.000189441 0.0128697 -0.0771611 -0.0424701 -0.111749 0.0406181 -0.0795107 -0.174892 -0.174209 0.0707435 0.215014 0.0724504 0.172202 0.119441 0.0583081 0.0807449 -0.0945672 -0.153514 -0.00160287 -0.03699 0.0721705 -0.00742432 0.0223054 -0.0968556 -0.00870286 -0.0714297 -0.022992 -0.0533985 -0.071061 0.00955207 -0.0388236 -0.0427255 0.0784035 0.0276861 -0.0679914 -0.0226693 0.0110143 0.102932 0.213018 0.131309 0.178335 0.200142 0.0554949 -0.103222 -0.206534 -0.016802 -0.0545537 -0.00600992 0.0265961 0.113917 0.0635636 -0.086356 -0.00569429 -0.0176199 0.0414328 -0.0118133 -0.0949385 -0.0952501 -0.0882635 -0.144936 0.0649757 0.0219132 -0.0748042 0.0368751 0.0614594 0.18905 0.0525533 0.170159 0.16795 0.0137278 -0.0661824 -0.179696 -0.142684 -0.0937097 0.0508419 -0.0830198 -0.0326142 -0.0325101 -0.0671941 -0.0435738 0.0112376 -0.0216156 -0.0752309 0.0585153 -0.015723 -0.0643685 0.040256 0.0332221 -0.00697538 -0.079671 0.00949775 0.0221818 0.169286 0.201286 0.15287 0.121074 0.0610466 -0.0943428 -0.119907 -0.145169 -0.0748202 -0.0877945 -0.126431 -0.0357521 0.0155513 -0.00313793 0.00146757 0.0968677 -0.0238711 0.0217058 -0.0273791 -0.0173503 -0.012123 -0.0254181 -0.0516467 -0.0840463 -0.0576779 -0.0174639 0.0326679 0.148324 0.107219 0.0462219 0.151171 0.089274 -0.0900873 -0.189351 -0.230879 -0.099316 0.0534698 0.00115636 -0.0410456 0.0469834 -0.0430318 0.00204362 -0.0622853 0.054241 -0.0647221 -0.046608 0.00221735 -0.0700334 -0.103046 -0.11867 -0.0713439 0.0503732 -0.0734468 0.0835314 -0.0858725 0.177793 0.0575377 0.0701816 0.0728424 -0.100278 -0.170834 -0.189626 -0.18799 -0.0580051 0.0582066 -0.0382059 -0.0445263 -0.063369 -0.0855108 0.0423977 0.0224604 0.0511479 0.0152706 -0.0749125 0.0854732 0.00680829 0.0798184 -0.0436244 -0.0548872 0.067442 -0.127623 0.0401677 0.0501311 0.0768411 -0.00761678 -0.0552093 -0.0374799 -0.122252 -0.14703 -0.110291 -0.048564 0.0882675 -0.0246912 0.0603455 -0.0520981 -0.0486301 -0.00103149 -0.033034 -0.0800349 0.0442295 -0.0413797 0.00882874 -0.00610487 -0.0371734 -0.0606515 -0.0208256 0.0306897 -0.0472527 -0.0454602 -0.0426641 0.0345671 0.114303 -0.0342501 -0.110798 -0.0941941 -0.113333 -0.110313 -0.0607532 -0.126179 0.0290836 0.018704 0.00696172 0.00431575 -0.113451 0.0299016 0.0362691 0.0108324 -0.0212713 0.0127972 0.0504326 -0.0156784 0.0682001 0.0533779 -0.0630897 0.00130004 -0.0363284 -0.0239726 0.0092504 -0.0602833 0.0135312 0.0309589 -0.0886432 -0.0641154 -0.154199 -0.0216378 -0.0259042 0.00178788 -0.0109727 0.0348395 0.11026 -0.00698923 -0.0256711 0.065212 -0.0568601 -0.0124505 0.0329331 -0.0560496 0.0744829 0.0220757 -0.0512721 0.0358004 0.010708 -0.0838385 -0.0293842 0.0439718 -0.0967296 -0.0545832 0.0905302 -0.0755851 -0.019294 -0.0306802 -0.0727349 -0.0719399 0.00878147 0.00818441 -0.0933185 -0.0475349 -0.09727 0.0433498 0.0142221 0.0807821 0.0153519 -0.00795361 -0.0141145 -0.0295163 0.037151 0.100169 -0.00238446 -0.031648 -0.0142732 -0.0256307 0.0431012 0.0164578 -0.083693 -0.0107656 -0.106325 -0.00933784 -0.0782822 -0.142573 -0.0444628 -0.0666632 -0.0236298 0.0505386 -0.0607928 0.052124 -0.0233551 0.00448221 0.00715724 -0.0557107 0.0134926 0.0360726 -0.0408369 0.0273002 0.0173102 0.017452 -0.101082 -0.0497845 0.022561 -0.0189143 0.0280077 0.0542041 0.0189263 -0.0758913 0.0625872 -0.0200956 -0.00376704 0.0501464 0.00392225 0.0533939 -0.00268423 0.0167518 -0.0127041 -0.0646373 -0.0383392 0.0122805 0.00225407 0.0525216 -0.0138009 0.0158977 0.00753333 -0.0272642 0.0112968 0.0483085 0.0286748 -0.0115677 -0.0448876 0.10693 -0.00327351 0.051982 -0.0785326 -0.0574428 -0.0243416 -0.0245276 -0.109013 -0.0553926 0.00246219 -0.0412745 0.133293 -0.000696747 0.142028 0.00298916 0.0563773 -0.0578263 -0.012334 -0.00835183 0.00375232 -0.0119029 -0.00570114 -0.00582276 0.0343567 -0.0602111 0.0325216 0.0620327 0.141522 0.0520151 0.0256085 -0.0250249 0.00490574 -0.0324316 0.00942301 -0.0102354 -0.0284359 -0.0728436 -0.0309748 0.017083 0.11729 0.0171556 -0.065729 -0.0408156 -0.0153171 -0.035282 -0.0346378 -0.00300344 0.111208 0.0200667 -0.0278739 0.0917332 -0.0183671 0.031984 0.0704544 0.0101745 0.0115092 -0.0128058 -0.0557722 -0.0117098 -0.0225565 -0.0111508 0.0257862 -0.0377103 0.0970796 -0.0397399 -0.0689792 -0.0123419 -0.0820987 -0.0399208 -0.000446928 -0.0832997 -0.055056 0.0229274 0.020503 -0.0694943 0.00151394 -0.0441949 0.0672377 0.0631644 0.0353061 -0.053192 0.0136976 -0.0202246 -0.0636994 0.0167928 0.0269889 0.0382958 -0.00441913 -0.00305452 0.0505769 -0.0153172 0.0405552 0.0646555 0.0105038 -0.0082158 0.00243637 0.0765976 0.0664131 0.0857513 -0.0503066 -0.0430971 0.0802302 -0.00358324 0.000618615 0.0371376 0.0198425 -0.0271633 -0.0666155 0.0512952 -0.0323821 0.0202323 -0.00196474 0.0694945 0.0250415 -0.00181023 -0.00559543 0.0389091 -0.0413342 0.122389 0.00203098 -0.00575081 -0.00746701 0.0447518 0.0642155 0.0144802 0.0412306 -0.0535707 0.0104707 -0.00979352 0.02728 0.0249628 -0.0884605 -0.0323348 -0.123738 0.0617612 -0.00670023 -0.0277418 -0.0146165 -0.0417453 -0.00202108 -0.101668 -0.0507486 -0.0622663 -0.0302485 0.0278313 0.00915901 0.0360289 -0.00967749 -0.00890319 0.0118404 0.0214264 -0.00603664 0.0409793 0.0482478 -0.00151637 -0.0282885 0.0580221 0.0949295 0.0189476 0.00199583 
  Neuron 9
   - Bias: -0.0132668
   - Weights: 0.0647787 -0.0134217 -0.00676095 0.0246494 -0.0435301 -0.0346092 -0.033442 0.0260159 0.0139642 0.00236348 -0.0990157 -0.0974749 -0.0135954 -0.0598958 0.00781887 0.0350024 0.0117741 -0.0583886 -0.0530048 0.0664586 -0.0337263 -0.031203 -0.0346547 0.00638077 -0.0333899 -0.0134119 -0.0313162 -0.00526046 0.0642471 -0.0976061 -0.0738772 0.0228134 0.00124008 -0.00232598 0.0270562 0.0248015 0.148432 0.0313106 -0.0802098 0.0277169 0.0358188 -0.0306458 -0.0188548 -0.0770622 0.0944255 -0.0412922 -0.001061 0.0689166 0.0951618 -0.0223868 -0.0512406 0.0287177 -0.0173385 0.0285551 0.0315431 -0.0181099 0.0316078 -0.0168437 0.0378683 0.0303002 -0.00347244 0.0155968 -0.0463016 -0.0170238 -0.0669955 0.0214018 0.0879294 0.0920584 -0.0316987 -0.00758307 -0.0433297 -0.0202506 -0.03425 0.0543016 0.0287708 0.0221052 0.0195189 -0.0250986 -0.0193748 0.0472601 -0.0662688 -0.00637825 0.114768 -0.0360604 -0.0513315 -0.0464585 -0.0393213 0.109676 0.0438815 -0.0589324 -0.0203502 0.0439542 -0.00960433 0.0638458 -0.00829269 0.0547342 0.0375078 0.0381694 0.0558666 -0.102944 -0.0930572 0.0507145 0.0440249 0.0496979 0.0670603 -0.0382296 0.00798722 0.027006 0.0199249 0.0514317 -0.0990217 -0.0203745 -0.0388089 0.0172838 -0.00399807 0.034792 -0.0296787 -0.0260279 0.0517039 0.0497782 -0.0631735 -0.0345397 -0.0872731 -0.0427297 0.0453764 0.0831853 -0.0463163 0.0161665 -0.00303404 -0.0653344 -0.045673 0.0315404 -0.0402153 -0.0879553 -0.0390438 -0.0263243 0.000806328 0.0588026 0.025903 0.0542282 0.0976619 0.0166001 0.0398743 0.0477668 0.0325366 0.0101138 0.059045 0.00652413 -0.0136453 0.040563 0.0289317 0.0591363 -0.0118168 -0.0233949 0.00260283 -0.0122948 -0.0603761 -0.0644734 -0.0229139 -0.0261586 -0.101211 -0.040768 -0.134844 0.00605036 0.00614573 0.0239386 0.0463484 0.0511476 -0.0172888 -0.0106241 -0.0514885 -0.0187311 -0.0460231 0.0178287 0.0574421 -0.0533695 0.0422292 0.0303952 0.0319769 0.0705898 0.0733085 0.048532 -0.0554197 -0.0417014 -0.0587739 0.0387848 0.0123593 -0.0637766 0.00277926 -0.0030085 -0.0601794 -0.0595293 -0.0551617 0.0807631 0.00963699 0.0648076 -0.029315 -0.0316202 -0.00608477 -0.0579739 -0.00934462 0.0675396 0.0458638 0.0684393 0.0700222 0.0320784 0.0297084 0.00357902 -0.0976528 -0.0199639 0.00598239 -0.0401059 -0.0518573 -0.0345304 -0.0753499 0.0291932 -0.0248918 0.00335125 -0.00512163 -0.123608 -0.0401437 -0.0554093 -0.0435759 -0.0168061 0.028209 0.0465014 -0.0788015 -0.00654998 -0.0443543 0.0354658 0.00664544 0.112712 0.0260604 -0.0248793 -0.0616408 0.0325746 0.00494904 0.0907802 -0.0342707 0.101385 0.00213181 -0.0753621 -0.000955016 0.142611 0.0300081 0.0523076 0.0731732 -0.0134747 -0.0296258 -0.00877866 -0.0718031 -0.0525261 0.0176654 0.01978 0.0207392 0.0308692 0.0250432 0.0692187 0.0964212 0.177469 0.104086 0.0583488 -0.0104456 0.0392545 0.0619595 -0.0553044 0.00977902 0.0825338 0.0252211 0.101048 -0.00947831 0.052239 0.0633723 0.0512355 0.150007 0.0209269 -0.0357165 -0.0564001 -0.0157072 -0.00450894 -0.0223636 0.0228352 0.0618934 0.000766889 0.0756999 0.00390612 0.0400566 0.0472587 0.0605371 -0.0133665 -0.0135304 -0.0815112 -0.117144 -0.015211 -0.0523739 -0.00913188 0.0431072 0.0305221 0.0518623 0.0530107 0.102322 -0.0161764 0.141754 0.0589324 0.0350194 0.0401836 0.0712893 0.029842 0.0418861 -0.0349379 -0.0216433 -0.0261435 0.0989505 -0.027603 -0.0826811 0.0557547 -0.013036 -0.00770218 -0.106347 -0.132692 -0.227405 -0.0493176 0.0720738 -0.0655484 -0.0725507 0.13802 0.0522849 0.187809 0.0803959 0.0783617 -0.00623277 -0.0168887 0.0256232 0.0334491 -0.0171566 0.088291 -0.000706438 0.0045108 -0.00480312 -0.035018 0.0231533 -0.0925171 0.0367975 -0.142216 -0.167617 -0.105462 -0.162268 -0.0920152 -0.087533 -0.0200266 0.0589345 0.104364 0.167502 -0.0303659 0.128765 0.11635 0.100375 0.0644431 0.113053 0.0501968 -0.00854186 -0.01448 0.0127626 0.0943605 0.0141715 0.0389977 -0.00983606 -0.00352456 -0.00643472 -0.106004 -0.0660835 -0.118513 -0.11597 -0.11692 -0.119975 -0.146458 -0.0212743 0.0712845 0.173733 0.0794056 0.0598913 -0.0590182 -0.022352 -0.0262079 0.122757 0.0183276 0.0080394 0.0593806 0.0403687 -0.0692967 0.040009 -0.0102384 -0.000161551 -0.0844913 -0.0885405 0.0817351 0.025486 0.0058692 -0.0567871 0.0757695 -0.026376 0.025284 -0.0497088 0.0228671 0.0827163 0.151361 0.06379 0.120586 0.0559566 -0.0031733 -0.123323 0.0619045 0.0454972 0.0696344 -0.126572 -0.018181 0.0101001 0.019712 0.0338954 0.0348027 -0.0114285 0.0659567 0.023601 0.0213997 0.00324646 -0.0205436 0.0180805 0.000678492 0.0313394 -0.138708 -0.040816 0.0515906 0.115607 0.0691057 0.214253 0.0846356 -0.0428336 -0.0220816 0.00213173 -0.0502945 0.0336909 0.0333626 0.0571866 -0.00243913 0.00542819 -0.0337057 0.0273146 0.0546321 0.0282156 0.0146778 0.0911525 -0.016375 0.0653703 0.00722383 -0.0019269 0.0531583 -0.0697657 0.0530445 -0.0124667 -0.0689981 -0.00419906 0.0259961 0.0593229 0.0353477 0.0778247 -0.00166146 0.00362825 0.0547187 0.0845327 0.0616573 0.00429612 -0.0976143 -0.0177108 0.0124918 0.0329957 -0.0612365 -0.0370627 0.058574 0.0768829 0.0277585 -0.0384455 -0.00835116 -0.0412031 -0.0562739 -0.166472 0.0114855 -0.0399542 -0.119795 -0.0537378 0.073985 0.136035 0.0144608 0.0145333 -0.197601 -0.0221688 0.0213613 0.0519215 -0.0290202 -0.00156102 -0.0796556 -0.0210502 0.0602022 0.0281669 -0.0754621 0.128331 0.0172676 0.0709818 0.027637 0.0907878 -0.0683069 -0.122987 -0.0470609 -0.0335066 -0.0847539 0.000589221 0.0012229 -0.0714594 0.0352476 0.0682626 0.0239671 0.0199192 0.00972122 0.0634615 0.0792454 -0.0409429 -0.0539533 -0.033015 -0.032414 0.0418943 -0.0420281 -0.0335668 0.00374782 -0.0395104 -0.063869 0.0539522 0.0398811 -0.00952682 -0.0921998 -0.00570309 -0.0558985 0.00526406 -0.0299211 -0.0608637 0.00495353 0.104682 -0.0450487 0.0602437 -0.100418 -0.059721 -0.0192162 -0.0834178 0.0313482 0.0360436 -0.123232 -0.0349559 -0.0564958 0.0314203 -0.0757117 0.0375471 0.0775519 -0.0115159 -0.032667 -0.00942843 -0.02913 0.0439907 -0.0655528 0.0122953 -0.00865861 -0.037136 -0.00304417 -0.0832581 -0.0791419 0.00856295 0.0252733 0.0219571 -0.0130053 -0.00597878 -0.0486587 0.0882472 0.027864 -0.00450085 -0.1082 -0.0521122 -0.109136 0.0471554 -0.0301631 0.0386858 -0.0012279 -0.0354485 -0.123303 0.0173938 -0.0244435 -0.0228279 -0.100072 -0.0870996 0.0834831 -0.0178159 -0.027007 0.0966097 0.0807456 0.120908 0.0466362 -0.0410653 -0.179031 0.0138028 -0.0654886 -0.0605682 -0.00181825 -0.0509719 -0.0511741 -0.0649982 -0.133204 -0.124572 0.0514138 -0.101864 0.0224731 -0.00979885 -0.0150264 0.0913 0.0375471 0.0430897 0.0126577 -0.0536125 0.00360131 0.0713888 -0.0184592 0.106429 0.0955375 0.0102302 0.0236304 -0.0927037 -0.00256534 0.0640725 0.00725361 -0.0375091 -0.0325532 0.0138459 -0.036956 -0.0402521 -0.0476315 0.0233313 -0.0448236 -0.0174608 -0.0673419 0.00238037 0.0407444 -0.000909106 0.030822 0.0680595 0.0687812 0.0741776 0.103542 -0.0738604 -0.0386255 0.0900107 0.046238 -0.0741169 -0.0819482 -0.0709878 -0.045994 -0.0500146 0.00168426 -0.135125 0.018464 -0.0705602 -0.104642 0.0237513 -0.0947843 -0.00660359 0.0151686 -0.027317 -0.0234154 0.0213502 -0.105997 -0.0386673 -0.0556888 0.0906282 0.172804 0.0879263 0.125097 0.089763 0.122685 0.00208034 0.0404351 -0.0597563 -0.139151 -0.13651 -0.0809823 -0.0158931 -0.00508759 -0.0225228 -0.0289556 0.0133552 -0.0319322 -0.0238214 -0.0317886 -0.0157067 0.0984458 0.0383047 0.0428967 -0.0283445 -0.0241152 0.049909 -0.0495056 0.0662533 0.0788132 -0.00493556 0.10283 0.0756444 0.0556182 0.0453646 0.0457695 0.0372168 -0.155583 -0.0975035 -0.0676255 -0.0342778 -0.0955046 -0.0947693 0.0878312 0.0794243 -0.0241905 0.0478588 0.0297115 0.0604255 0.0388527 0.0951279 -0.0858237 -0.0321125 0.0349696 -0.0882502 0.0853071 -0.0130987 -0.0163823 0.112303 0.00265739 -0.0189017 0.0275821 0.0260075 0.124756 -0.0362438 -0.0178033 0.0203793 -0.0364641 0.0272915 0.0489692 0.0578488 -0.00819619 -0.0167525 0.074556 -0.0350879 -0.0259687 0.0155319 -0.0615818 0.0216592 -0.0406511 0.00432623 0.115835 -0.00283839 -0.0918996 0.007007 -0.0721799 0.0372107 0.0482337 0.0046893 0.0385145 0.00927112 0.0202087 0.0604095 0.0225914 0.00968326 -0.014394 -0.0528184 0.00703147 -0.00800082 0.0570292 0.0159711 -0.0784487 -0.0537389 -0.0358608 -0.00764257 -0.0702905 -0.00253921 0.0336675 
  Neuron 10
   - Bias: 0.180117
   - Weights: 0.0102073 0.00858334 0.0583087 -0.00456501 0.0379988 0.0150669 -0.0700299 0.0205165 -0.0595148 0.0219335 0.0521549 -0.00691882 0.0647313 -0.0896769 -0.0871782 -0.00442107 0.0257307 -0.0272738 0.00461539 -0.1109 -0.0328496 -0.0422996 -0.0608699 -0.109071 -0.0164403 -0.00943712 -0.0264127 0.0300198 0.074831 -0.0410292 -0.00539321 -0.00358059 -0.0510663 0.040036 -0.0176181 0.00155591 -0.00729883 0.0116174 0.0840409 0.0223308 -0.000506951 -0.00143914 0.0916752 0.0260961 0.0441644 0.0662886 0.0969328 0.017829 -0.0225841 -0.015414 0.015366 -0.00201935 0.055374 -0.0151722 0.0211446 0.0142774 0.0369367 -0.0235975 -0.0644529 0.0450613 0.0436367 0.0107605 -0.0415995 -0.00312419 -0.0486006 0.0691114 0.0379831 -0.043874 0.0522075 0.00939636 0.0645217 0.0462791 -0.065705 0.0332945 -0.0576868 0.0814166 0.0682203 -0.101933 -0.0612646 0.0633998 0.0891332 0.0255475 0.0699199 0.0690538 -0.0208876 -0.0133601 -0.0126167 0.052095 -0.110549 -0.0714063 0.00299833 0.0108841 -0.0432946 -0.0969113 0.0532405 0.0770981 0.102393 -0.0605261 -0.0123064 -0.123303 0.0360262 0.119069 -0.00450318 -0.0461578 0.0519203 0.0508462 0.0291296 0.0692312 0.00480027 0.00317642 -0.0021899 -0.021624 0.0145504 -0.0251813 0.00183438 0.00522804 -0.0332801 0.0633297 -0.0168455 0.0574968 0.0398386 -0.0153883 -0.025287 0.054244 0.0731184 -0.0269671 0.0867972 0.00913652 0.111714 0.0987961 0.0512945 0.0178548 -0.010075 0.00120771 0.0644446 0.0611731 0.032976 -0.0445237 -0.0337381 0.0669972 0.0547518 -0.0205611 0.0114123 0.0105649 0.0361184 -0.0893625 -0.0938983 -0.0589134 -0.113865 -0.113956 -0.126544 -0.02255 0.00339585 -0.00425989 0.0146359 -0.0206461 0.0141809 0.0718672 -0.0882687 0.0965573 0.033954 -0.00510743 0.0030579 -0.0445379 -0.132705 0.0785475 0.0408256 -0.0487933 0.00543327 -0.00212094 0.0139754 -0.0526673 0.0292121 -0.0363873 -0.0148551 -0.0210772 -0.11007 -0.0901305 -0.0312457 0.00286282 -0.0730651 0.0115054 -0.0265245 0.0848183 0.0374278 0.0829617 0.104711 0.0590544 -0.00391194 0.00470844 -0.0634531 -0.00385982 0.024882 0.0858292 -0.0211349 0.032741 -0.064432 -0.0321984 -0.016795 -0.0585334 -0.0302745 -0.125845 -0.0230589 -0.0616204 -0.0311462 0.0894117 0.0569412 0.0327135 0.0499881 0.0171771 0.0843244 0.0282364 0.0762456 -0.060877 0.0131202 -0.0970255 -0.0268276 -0.056799 0.0484075 -0.0394781 -0.00621912 0.0969938 0.0305863 0.0167883 -0.0123372 -0.0217964 0.0133356 0.0551317 -0.0448485 -0.0285976 -0.014235 -0.055653 -0.0726457 -0.0684212 0.0435603 0.0543061 0.0152443 0.0605851 -0.0412147 0.0441657 -0.00641084 0.0479847 -0.0464881 0.0614266 -0.0642928 -0.0973428 0.0320412 0.0279111 0.0607894 0.00670169 0.0182288 0.0280014 0.0176719 0.0185263 0.0787149 -0.0683655 -0.129434 0.0208113 -0.0651896 0.0125242 0.0782711 0.0306042 -0.018774 -0.0295684 0.0119395 -0.0166469 0.00236615 0.0886342 0.025851 -0.0133914 -0.042056 -0.0665352 -0.134731 -0.0236074 0.0621462 0.00444813 -0.0126813 -0.0292431 0.00493022 0.0365508 -0.0508412 -0.075921 0.0139316 0.0343908 -0.00671242 -0.0442956 -0.0286039 -0.0452339 -0.0311396 -0.0184991 0.0398861 -0.0364526 0.103688 0.0963067 0.0578414 0.0663607 -0.0943726 -0.0747907 -0.0288604 -0.086923 0.0113034 0.0282828 -0.0335262 0.023101 0.0977698 0.030429 0.0978595 -0.0640216 -0.0223204 0.0851265 0.0367021 -0.108483 -0.0365367 -0.0386958 0.0805885 -0.0177527 0.0311144 -0.00420328 0.1404 -0.019106 -0.0163607 0.025248 0.0724833 -0.0447784 0.00634585 -0.03786 -0.0633425 0.0174935 -0.0247114 0.00311463 0.0204433 0.0379341 0.00482352 0.0420744 0.0216093 -0.0474099 0.0195875 0.0125296 -0.0545682 -0.0732643 -0.0851688 0.0607095 0.0618413 0.0449215 0.0116334 0.0708354 -0.0411164 -0.00172905 -0.0135952 0.0996504 0.0239659 0.0824645 -0.0891299 -0.0118737 -0.123374 -0.0662329 -0.000358126 0.0075959 -0.153885 -0.0350088 0.0703053 0.0673455 0.00142255 -0.0886707 0.0722298 -0.0635636 0.00889712 -0.027218 -0.0449206 -0.0259677 -0.00795441 0.0295784 -0.0259137 -0.0191515 -0.0876479 -0.0271286 0.11204 0.17741 0.163001 0.0450011 0.0874325 0.0703484 0.0418021 -0.0368325 0.0154203 -0.0412983 -0.0328619 -0.0209557 -0.0601993 0.00953445 0.0533534 -0.0492751 -0.0133668 -0.013715 -0.0513425 0.0844563 0.0731036 -0.0466273 -0.089622 -0.114276 -0.119958 -0.047044 -0.0809781 0.0866935 -0.00959177 -0.00578258 -0.00487208 -0.00272468 -0.0818398 -0.111575 0.0329146 -0.0405121 0.0120153 0.0559473 -0.0933262 -0.036478 0.0359352 -0.0650668 -0.0641412 -0.00947945 -0.0872942 0.120139 0.0226025 0.109095 -0.0318669 -0.023593 0.00418136 0.0503715 0.00124227 -0.0775231 -0.0152756 0.0332542 -0.0128763 0.0368115 0.0980404 -0.00458704 0.113991 -0.0116518 0.0391665 -0.0499784 0.0302439 -0.148791 -0.045775 -0.115619 -0.0213554 -0.0359289 -0.0998277 0.000205373 -0.0461127 0.00689095 0.0358366 -0.102773 -0.000787442 0.0185793 -0.0541159 -0.00270045 0.0849046 0.0286064 -0.00155283 0.119295 0.0356909 0.0467895 0.0935263 -0.0385543 -0.0133633 -0.0046273 0.00996929 -0.00710495 -0.0834178 -0.0190159 0.0297192 -0.0646678 0.00526052 -0.00427868 0.0317279 0.0278554 -0.0634658 0.080974 0.0499936 -0.0463298 0.109159 0.0158647 0.123387 0.0452575 -0.00581671 0.0592613 0.0879818 0.0774363 0.109679 0.0786332 0.0137721 -0.0263199 -0.0318958 -0.0199972 -0.112247 -0.0179382 0.0499542 0.0109998 -0.0288702 0.033238 -0.0286877 -0.00374715 -0.0772362 0.0884107 -0.0285569 0.013709 -0.0231589 0.0484023 0.0924284 0.0961273 0.151465 0.0905365 -0.0519631 0.0662392 0.061536 0.0865296 0.0550031 0.0972008 0.0359928 -0.0314178 -0.126723 -0.0250132 -0.0402358 -0.0697045 -0.0706654 -0.113943 -0.0189745 0.0364882 0.0276058 -0.032395 0.0163688 0.0116822 0.0888622 -0.0656392 -0.00434557 0.0663013 0.012551 0.00215339 0.0551131 0.0377312 0.0524247 -0.10975 0.0881986 0.0473023 0.111893 0.0711362 -0.0684036 -0.0974312 -0.0144377 -0.0532994 -0.0122114 0.0344134 0.0435989 -0.0370724 -0.0312017 0.041603 0.0865178 0.053039 0.146274 -0.00597094 0.0719615 -0.052469 0.0296107 0.0948498 -0.0317534 0.0108989 -0.0636964 0.0150698 0.0152693 0.0573263 0.0654587 0.0920099 0.0172407 -0.00841772 -0.019763 -0.0596011 0.0449914 0.0989247 -0.0109624 -0.0618383 -0.0245125 0.0745256 0.118583 -0.0165498 -0.0450214 0.0385061 0.0157692 -0.0196126 -0.0991892 0.0479094 -0.0293798 0.0261777 0.0437699 0.0185692 0.0800418 0.0374897 0.114195 0.0028797 0.0494271 0.0477375 -0.00663053 0.0132242 -0.0536872 0.00605182 -0.0741265 -0.0190359 0.152011 -0.111405 0.046095 0.031134 0.0223806 0.032138 0.0299935 0.0164927 -0.106482 -0.0615878 0.00844541 -0.0414792 0.042936 -0.0309272 0.0502643 0.0264174 0.0201822 0.0388354 -0.0334426 -0.0486037 0.0602104 -0.0770489 -0.0195194 0.0888296 -0.0417493 0.0190306 -0.0410254 0.0320784 0.0478654 0.0311434 -0.0156388 0.163531 0.00773206 0.0217809 0.0443446 0.0214423 0.0268712 -0.0276675 -0.00553831 -0.0441369 -0.0284815 -0.0131681 0.0340041 0.0264216 -0.0768451 -0.111507 -0.0164324 0.00115449 -0.0377083 -0.0222009 -0.0932459 -0.0355388 0.0685393 0.041807 0.0696175 -0.0360938 0.115476 0.0101503 0.052568 0.0343684 0.0199269 0.00219226 -0.000420573 0.01869 0.116282 -0.0199807 -0.00207917 0.0476872 -0.0732416 -0.0296604 -0.0229683 -0.00810873 -0.0362735 -0.0670636 -0.0129885 -0.0361701 0.0209789 0.016558 0.0304842 0.018582 0.00746028 0.0314482 0.0656299 0.0318626 0.00815133 0.0215794 0.0406621 0.0366382 -0.0637999 0.0527353 0.0635324 -0.0182828 0.013356 0.0639987 -0.042449 -0.0290189 0.0100985 -0.0598665 -0.084225 0.0467769 -0.00935555 -0.000967919 0.0240757 0.136113 0.057478 0.0154742 0.0768502 0.0757411 0.038404 -0.0195164 0.114466 0.0193554 0.0167941 0.0492084 0.0459867 0.0122386 -0.0289474 -0.0269956 0.0157609 0.0166869 0.0270926 -0.00691075 0.0877027 -0.046549 0.0090364 0.0356323 0.0708959 0.074979 -0.0482018 -0.00192108 -0.0273034 0.0874672 0.0104425 0.0101618 -0.0115774 0.0516093 -0.0946603 -0.0507116 0.0161983 0.0327989 -0.0136613 0.0284803 -0.0285156 0.0256237 -0.0774606 0.0436243 0.00977581 0.0366832 -0.0503567 0.0730146 0.0409684 0.0990589 -0.0489498 -0.0183773 -0.010106 -0.116191 0.054045 0.0657169 0.0199275 -0.0461839 0.0252793 -0.0097708 -0.0462383 0.0187944 -0.0784272 0.098027 -0.01628 -0.0795556 -0.0405945 0.063959 0.074312 -0.0560875 -0.0191245 -0.00145994 0.0229595 -0.110484 -0.0754385 0.025091 
  Neuron 11
   - Bias: 0.013728
   - Weights: -0.0231086 0.0330748 0.0556163 0.0308311 -0.0411478 -0.0174082 0.080649 0.0695858 0.0470038 -0.0284435 0.0617585 -0.0111555 0.0605435 0.0127562 0.0184704 -0.0773553 -0.0190123 -0.00533119 -0.00667519 0.00354735 -0.0293841 -0.00752106 0.111855 -0.00487179 0.0933214 -0.00319041 0.0337559 0.0369032 -0.059861 -0.00124246 -0.0619161 0.0523693 0.0623814 0.0624615 -0.0359548 0.0145846 0.0226405 0.0121179 -0.048129 0.143305 0.0162523 -0.0010288 0.0325917 0.0292095 -0.0133578 0.0391028 0.00562953 0.0365738 -0.0540297 -0.0203247 -0.0583707 -0.0503498 0.00260275 -0.0225961 0.0544649 -0.0396657 0.0679872 -0.0239503 -0.0472223 -0.00303159 0.0697009 0.0106707 -0.0702073 0.0612554 0.0893766 -0.0495666 -0.0781808 0.11002 0.0281283 0.0656334 0.03019 0.000714448 0.0281233 -0.157751 -0.0534171 -0.0458805 -0.0530812 0.0745035 0.0194147 -0.00155987 -0.0515852 -0.0399693 0.0347205 0.0269938 0.116935 0.0151396 0.0842462 0.031903 -0.0532978 0.0103437 0.085643 -0.00955384 -0.0547434 0.0136789 -0.0275272 0.00763364 0.0531863 -0.0389754 -0.0615397 -0.105889 0.0366008 -0.0212859 -0.0112195 -0.0220376 0.0506743 -0.0379333 0.00802668 0.00783222 -0.0370163 0.0202692 0.00105303 0.0207118 -0.0140107 0.0487263 0.0795915 -0.059941 0.0551702 -0.0179038 -0.0570628 -0.0623581 -0.0464299 -0.0555202 -0.00997674 -0.0206933 0.0102662 -0.0111452 -0.0587783 -0.070719 0.0372404 0.00400924 -0.00624486 0.0287912 0.0307187 -0.049591 -0.0889305 0.0221329 -0.110827 0.0507123 0.0866338 -0.0510251 -0.085865 0.0033366 0.0447961 -0.0870316 -0.0548412 -0.0237436 0.00704406 -0.0549014 0.0350255 0.0447679 -0.0292504 -0.0547387 -0.0432289 0.049142 0.00209245 0.01822 0.0354446 -0.063515 -0.0255989 0.0368416 -0.0250727 -0.00577224 -0.0138819 0.0802613 -0.0413105 -0.029867 -0.0349484 -0.0434864 0.0753615 -0.0111568 -0.051972 -0.0274395 0.0151511 0.00826655 0.0890929 0.052878 -0.0233928 -0.0321444 0.0464512 -0.0158101 0.0372731 0.0103523 0.102179 -0.0365095 0.0031869 -0.0669375 0.0934706 0.0312938 0.0349499 0.0757756 -0.0499818 -0.0193071 -0.112017 -0.00772708 0.00677456 -0.035782 -0.0011003 0.0232906 0.00634787 -0.0189197 -0.0586527 -0.156974 -0.0148601 -0.0623212 -0.0111978 -0.00267287 0.0616056 -0.0231489 -0.0147307 0.0468181 0.121712 -0.00308381 -0.0305792 0.0522974 0.0180076 -0.0159707 -0.0122207 -0.0546371 -0.0608183 0.0492406 0.0761276 0.0256681 -0.0646569 0.0102393 -0.00585559 -0.0649857 -0.0131231 0.0492982 -0.041846 -0.0409006 -0.149274 -0.00855784 -0.00222792 0.00862502 0.011929 -0.163885 -0.0606303 -0.035308 -0.0118569 -0.00338572 0.0143408 -0.0225394 0.00608563 0.0650937 0.011048 0.0221284 -0.0444763 -0.0717871 0.0949362 0.0229873 -0.0642643 0.0219654 0.00784233 0.0017403 0.0297757 0.0294302 0.0269574 0.0357935 0.0519877 -0.0300324 0.0144249 -0.0456319 -0.00964193 -0.0420184 0.00843018 0.0378265 0.0114675 0.0781761 -0.011447 -0.0273264 0.0837651 0.0831214 0.0367669 -0.00657143 0.00389282 -0.0269068 0.059309 -4.38598e-05 -0.0123703 0.00463776 -0.0517479 -0.0101127 0.0351982 0.10708 0.0606141 -0.00994316 0.0413326 0.0940311 -0.0442322 -0.0880425 -0.0633583 -0.00102055 -0.0694464 0.0104577 -0.00799992 -0.103151 -0.0996532 0.00854195 -0.0434672 -0.0246118 0.0604996 0.0276339 0.0608932 0.0254723 -0.038106 -0.0171354 -0.0379387 0.0849384 0.0388727 0.0749298 0.0872693 -0.00513758 0.016793 -0.0593978 -0.0619687 0.0680283 0.051351 0.0584215 0.0616244 0.0670782 -0.0345645 0.00237258 -0.0182396 -0.0588116 -0.101151 -0.00225827 -0.0297239 0.038429 0.0565308 0.0055196 0.0162221 0.0338085 0.0214271 -0.0468673 0.0173701 -0.0099706 -0.128657 0.0468118 -0.0524664 0.0539542 0.0036542 -0.0401922 -0.0185756 0.152341 0.104813 0.0916371 -0.0182922 0.00982773 0.0552078 -0.0931307 -0.0202688 -0.118064 -0.0659171 -0.00838161 -0.0738515 -0.0803989 -0.0540474 0.0433601 0.0753775 0.00406002 0.0412782 0.0418736 0.081195 0.0431873 -0.0105173 -0.0295525 0.0621102 0.0389084 0.0204465 -0.0165677 -0.015537 -0.073998 0.0379164 0.0986267 0.127138 -0.00759808 -0.00326002 -0.0680784 -0.0922755 -0.00111524 0.055308 0.0308443 -0.00438099 -0.0149654 0.0414152 0.0348926 0.093581 0.00935777 0.0101782 -0.0103011 -0.0584059 -0.0382344 -0.031747 0.111962 -0.00692404 0.047376 -0.0400124 -0.0640599 0.0510971 0.0413332 0.0356983 0.105581 -0.0227779 -0.0166768 -0.0890811 -0.0527338 0.05378 -0.0319168 0.129454 0.0100469 -0.0348803 -0.0263679 -0.0373164 0.0442432 0.00797558 0.0327841 0.0871148 0.0883573 0.0342702 0.00272686 0.0640374 0.0193495 0.0232878 0.00543013 -0.0303695 0.0147986 0.108349 -0.0211758 0.0828922 -0.00482033 0.000843069 -0.13187 0.0399376 0.00936665 -0.0243892 0.106478 -0.0802889 0.00535204 -0.0427235 0.0317483 0.0618167 0.101186 -0.040066 0.0321213 0.0261638 -0.0540166 -0.0522562 0.00246527 -0.04219 0.0161515 -0.0812138 0.0434593 -0.00216582 0.0636265 0.0279429 -0.0267289 0.0426625 -0.0117737 -0.135761 -0.0821601 -0.0479827 0.0925614 0.00445134 0.00614762 -0.001698 0.0314195 0.0334884 -0.128675 0.0356056 0.053331 -0.0858752 -0.064607 -0.0568179 0.0869122 0.0160699 -0.0235211 0.0395495 -0.0265237 -0.0196722 0.0240504 0.0659453 -0.0247668 0.0571271 0.100513 -0.000344426 -0.0326896 -0.076402 -0.0451658 -0.0342095 0.0574156 -0.0424017 -0.0520181 -0.00215675 -0.0333523 -0.0159676 0.063538 -0.0387223 -0.059602 0.00244374 -0.0409958 0.0157924 -0.0218187 0.00221603 0.0517268 -0.00827978 -0.0971045 -0.0498216 -0.00487393 0.0402889 -0.0755887 -0.0638723 0.0343853 0.0323103 0.0836916 -0.0297423 -0.0783074 -0.0148297 0.0217765 0.0729701 -0.0295403 -0.0263352 -0.0351092 0.0695189 -0.0360802 0.00437896 0.0451747 0.0887055 -0.0360978 0.0164526 -0.162269 0.132723 -0.0141174 -0.0297034 0.00869601 -0.0201687 -0.0088718 -0.000937284 0.0382623 -0.0510304 0.0721624 0.00262893 0.0844959 -0.0293274 0.0293759 0.0524414 0.0811582 -0.0131267 0.034621 -0.0424034 0.0899063 0.0958879 0.00569844 0.0421268 0.0165452 -0.014765 -0.126539 -0.0416434 -0.0637403 0.108563 -0.119224 -0.0434066 -0.000197266 0.097643 -0.0557176 -0.0503282 0.031295 0.0164345 -0.0831662 -0.0401545 -0.0433734 0.00981793 -0.0166315 0.0872265 0.0741237 -0.0408832 0.0288081 0.0617133 -0.0273535 -0.10844 -0.147145 0.0117035 -0.0184211 -0.0717295 0.0509202 -0.0613023 0.00473663 0.0578829 0.0223474 0.0187395 -0.0921998 0.0488827 -0.024883 0.0245783 0.00599423 0.0058503 -0.0048508 0.0585303 0.0420787 0.061257 -0.039477 0.0136055 -0.0762944 -0.0770851 -0.0410669 -0.037282 -0.0294045 -0.0321492 -0.00175247 -0.0452304 0.0301025 -0.0535769 -0.0310629 0.0598929 0.0725759 -0.0187565 0.0328215 0.100836 0.0639056 0.0614265 0.0280603 -0.0347661 -0.0793565 -0.0804618 -0.0672254 0.049522 -0.014079 -0.0327216 0.0513671 -0.0189221 -0.055088 -0.0798457 -0.0796164 -0.0523037 -0.0719053 -0.101783 -0.0947376 0.0638314 -0.0658162 -0.0343826 -0.0454882 0.0177646 -0.0224891 0.0342554 0.0137287 -0.0231799 -0.0290751 -0.0787293 -0.0304042 0.050599 -0.0660523 0.0835685 -0.0840571 0.0543096 0.107239 0.0658138 0.102036 0.00420327 -0.0581184 -0.128441 -0.060366 -0.107024 -0.00382364 -0.0360659 -0.0469429 -0.0519271 0.118156 0.0322357 -0.104461 0.125487 -0.0286521 -0.0124728 0.00929876 -0.0557435 0.0314231 0.0502342 0.0483967 0.0209394 0.0727421 -0.02302 0.0342748 -0.00801484 -0.0298034 0.0410582 0.0782132 0.0734285 -0.0389077 -0.0788823 0.0501234 -0.0249101 -0.0296796 -0.0347389 0.00940035 0.0166994 0.120338 0.0446315 0.0172744 0.0693023 -0.0573015 0.0640118 0.0332575 -0.00903616 -0.0330371 -0.111671 0.0260837 0.0740241 0.0188745 0.0221254 -0.0389557 0.1124 0.0411622 0.139693 0.0520442 -0.0272295 -0.019256 -0.0499571 -0.00800021 0.0266693 -0.052431 0.0126376 0.0175571 0.0363541 -0.00728668 -0.0291322 0.0810685 0.0298658 0.127767 -0.0781541 -0.089389 0.0308933 0.0674344 0.11133 0.0303122 0.00191698 -0.0787739 0.0798462 -0.0156018 0.0964507 0.0145052 -0.0262558 -0.0154615 0.0040721 0.0416991 0.0905917 -0.0545635 -0.0358859 -0.0761547 -0.067707 -0.0141707 0.0356945 0.018607 -0.0480039 -0.00134179 -0.0874112 -0.0084645 -0.0479061 -0.0701803 0.00383713 0.0304357 0.0241079 -0.0575911 0.0732508 0.105722 0.0857789 0.053814 0.062094 0.0242851 0.0091424 0.0559197 0.0127157 -0.0292729 -0.0129684 0.0218946 -0.0399343 -0.0694598 0.0998012 0.0157042 -0.0778407 0.0163437 0.0574272 -0.0529523 0.166096 -0.0128129 -0.0838597 0.0289829 
  Neuron 12
   - Bias: 0.100475
   - Weights: 0.0189236 0.123234 -0.0230412 0.00697103 0.00744397 0.0690735 0.0186146 0.0818962 -0.0232981 -0.0103569 -0.0361853 -0.0378617 0.0109567 0.0881871 0.0221114 -0.0675601 -0.0674178 0.0373908 0.0152668 0.0542743 0.0846763 -0.0654349 0.0520607 -0.0199849 0.00894857 -0.0240185 -0.00776236 0.00176044 -0.0501606 0.00154238 -0.017906 -0.0350354 -0.0276723 -0.0711405 -0.0403447 0.00771513 -0.0317507 0.019073 0.0334087 -0.0106173 0.00645455 0.0670719 -0.0202982 -0.0356815 -0.0214612 0.0545459 0.0180993 -0.0278391 0.00272279 -0.0367589 -0.048467 -0.00158032 -0.0405429 -0.139041 0.0122594 -0.0859347 0.0911589 0.0596558 0.00618331 -0.0150656 0.0603524 -0.0842708 -0.0662387 0.0709971 -0.0257251 0.0555847 -0.0399313 -0.0222076 0.0192927 0.0893177 0.0131842 -0.0498655 0.0902453 -0.00630854 -0.031272 -0.0981583 -0.0589402 -0.0310802 -0.0226239 -0.0689908 0.00979198 -0.0602464 -0.0855281 0.00418256 -0.0327055 0.0772071 0.0105265 0.047675 -0.00253116 -0.127873 -0.0715986 -0.0408766 -0.03101 0.0410664 0.0375699 -0.057741 0.0592065 0.0311413 -0.0755584 -0.00238801 0.0180891 -0.0136665 -0.074958 -0.0594519 -0.0424523 0.077783 -0.0895295 0.036415 -0.014518 0.0192999 -0.0715313 -0.0172301 0.0546506 -0.0121997 -0.0451973 -0.077384 0.0416976 0.0085506 0.0527477 0.0035303 0.0436343 0.0919802 0.130998 -0.0181517 -0.0132925 -0.0156431 0.0345217 -0.0217339 -0.0521683 0.00557547 0.0155801 -0.00422305 -0.126554 -0.110515 -0.0162499 -0.0410875 -0.0118567 0.0170069 -0.0419345 0.0662049 -0.0229426 -0.00841059 -0.0158214 0.0154501 0.0227909 0.000954206 -0.0591138 0.0549874 0.041203 -0.0397757 0.183602 0.00360747 0.0891537 0.0421076 -0.0362438 0.0423282 0.00488254 -0.043768 -0.0171212 0.0711922 0.0726777 0.126859 -0.0432195 -0.050928 0.0156872 -0.130813 0.0283294 -0.036098 -0.0550276 -0.0851667 -0.0123463 0.0913512 -0.0290916 0.00624401 0.00922376 0.010378 0.0695219 -0.0169394 0.0347806 -0.104265 0.0245373 -0.0143782 0.0368546 -0.0540612 0.0649182 -0.087233 -0.0698098 -0.0462969 -0.122327 -0.0181701 0.0252971 0.0261055 -0.0401182 0.0604943 0.0838994 -0.0571947 -0.0175517 0.0164852 -0.0053804 -0.0835584 0.0503837 0.0808655 -0.0389377 -0.0169685 0.0209963 -0.0999012 0.00550364 0.00299907 -0.0574597 0.103949 -0.0720024 -0.0201882 0.00812363 -0.0103235 -0.070343 -0.0677622 0.0315968 0.0549165 -0.0669006 0.0377303 0.104766 -0.0193399 -0.0613029 0.0264628 0.0780875 -0.0839601 0.109273 -0.0328574 0.0387117 0.0239411 -0.0161506 0.0476953 -0.108934 0.0753009 -0.0293498 -0.188648 -0.00965051 0.0228545 0.117607 0.024085 0.0587965 -0.01834 -0.0801448 -0.00571084 -0.0720437 0.066499 0.0590317 0.0101812 -0.111825 0.0227822 -0.00535081 0.0620008 0.0251686 0.0171166 -0.0239807 -0.0213208 0.000777356 -0.0349268 0.0212844 -0.06974 -0.0253746 0.0153896 -0.0412844 0.0361635 0.028074 0.0590707 0.0523375 -0.0107719 0.0523555 0.0401794 0.0728121 0.109833 0.0679514 0.0313744 0.00635638 -0.0416824 -0.0684434 -0.0460453 0.0188987 -0.0165886 0.049081 -0.103099 -0.0309719 0.0738465 -0.00671927 0.0140715 -0.0230924 0.059077 -0.0385961 -0.0433855 0.0230115 0.0313185 0.0239238 0.00178858 -0.0701862 -0.00150011 0.164031 0.103085 -0.00183679 0.0321033 0.0696263 0.0608396 0.0856819 -0.01556 0.00398416 -0.0368857 -0.0608479 -0.0546974 -0.0209943 0.0191212 0.0625044 -0.0191476 0.0702251 -0.079887 -0.0469646 0.0640136 0.0323615 0.0878664 -0.0213044 -0.059412 -0.0390693 -0.0755218 -0.115974 0.0401889 -0.0403744 0.0382791 -0.0583021 -0.0161926 -0.0306225 0.0531217 0.0925222 -0.0627047 -0.0791499 -0.102644 0.0145141 0.0141646 -0.0324791 -0.0263198 -0.00740233 -0.010648 0.0209731 -0.0529573 -0.025532 -0.0277681 -0.0850391 -0.0548984 -0.0195267 -0.0969734 -0.0121257 -0.0232729 -0.0117583 -0.0484198 0.116939 0.14427 0.00675839 0.0100902 0.00552066 0.0201157 -0.030114 0.0135344 0.0326103 0.0682941 -0.128609 0.00794972 -0.0304277 0.0441727 -0.0395435 -0.0941039 -0.0131487 0.0336605 0.0148078 -0.0164946 0.00965779 0.0867446 0.0563849 -0.0434805 0.0678187 0.196328 0.0892958 0.0625563 -0.032069 0.0415158 0.066286 0.0696361 0.0425904 0.00848071 0.0736952 0.00767878 0.0594351 -0.0589227 -0.0285616 0.06171 0.0444493 -0.00182872 -0.0130091 -0.0398778 -0.193398 0.0151345 0.00528883 0.0493925 0.0434728 0.143586 0.0801737 0.0738063 0.151951 0.168361 0.0581987 0.00544003 0.0536716 -0.0139544 -0.0249906 -0.047145 -0.0529952 0.0687737 0.0207954 -0.00382306 0.0621267 0.0176406 0.0838375 0.0147881 0.00974133 0.0541259 -0.033315 -0.0502659 -0.0577675 -0.0042799 -0.00442165 0.0756007 0.116309 0.0672603 -0.0327851 0.0163845 0.105635 0.0111463 0.156607 0.113233 0.0378257 0.00683071 -0.059323 0.0857413 -0.00125091 -0.00144822 0.100627 0.0375488 -0.000175946 0.0188644 0.0377152 -0.0559989 0.00958224 0.0257487 -0.0146135 0.0584531 -0.0587333 -0.0609359 -0.0445396 0.0443955 -0.0861129 -0.087194 -0.0696386 0.0409119 0.0194 -0.0449877 0.0275777 0.0156883 0.0621837 0.0436291 0.0196722 0.0897614 -0.0199738 -0.0595856 0.0262901 0.0143655 0.0309004 0.0500112 -0.0281732 0.0567057 0.0489765 0.0103351 0.0885536 -0.0323813 -0.0240031 0.0185527 0.0163589 0.0117691 0.0216006 -0.0207242 -0.12056 0.0444949 0.050998 0.12864 -0.0163764 -0.137213 -0.00676876 0.110797 -0.0190943 0.0162704 -0.064403 0.129408 0.00963469 0.134832 0.0563166 0.0455042 0.0104042 -0.11169 -0.0349852 0.0242905 0.00994065 0.0499187 -0.00185767 0.020413 0.0221551 0.052755 -0.0879003 0.0698726 0.0268619 -0.0224207 -0.13611 -0.10489 -0.0295361 -0.100021 0.0474155 -0.107093 0.175617 -0.00716924 0.1068 0.0683216 0.0428313 0.176534 0.0629589 -0.0218737 -0.0790091 -0.0269603 -0.0181682 -0.0376862 0.0100595 0.0521722 0.137729 0.0960355 -0.00860631 0.108952 0.011313 0.0210693 0.0275802 0.00451422 -0.118352 0.0501219 0.0376213 -0.0385183 -0.0257563 0.0256186 -0.010277 0.0152811 0.0421945 0.118787 0.106137 0.0914036 -0.0362506 0.0458991 0.0841716 0.09216 -0.0215219 0.0242862 -0.093721 0.0404951 0.0400902 0.0892438 0.0893559 0.0631377 0.0385255 0.0916079 0.069993 -0.00437394 0.0113858 -0.0313565 -0.0763421 -0.0764493 -0.0622845 0.0687659 0.0837244 0.0359169 0.0516719 0.0338181 0.0785105 -0.00812994 0.038683 -0.0188778 -0.0988289 0.0259825 -0.0837883 -0.0414724 0.0116847 0.0291261 -0.0356829 -0.0216999 0.0809722 0.118963 0.0669597 0.0680678 0.00476003 0.10655 0.0192118 -0.000520793 -0.020771 -0.0501915 -0.0168177 0.0337111 0.0644828 0.171729 0.0510513 0.085611 0.18426 0.0123771 -0.037351 -0.0415066 0.0347908 -0.0344291 0.0198503 0.068387 -0.0349514 0.00910776 -0.0389806 0.131085 0.0529354 0.0865626 0.0928749 -0.0118136 0.120161 0.0226669 0.0423374 0.105885 -0.00163921 -0.0423474 -0.0893624 -0.0809604 -0.00786551 0.0704965 0.0275182 0.0671559 0.0742051 -0.0100251 -0.0254083 0.0186084 0.0244567 0.0637223 0.0219808 -0.0231213 0.00711184 0.0426986 0.0977276 0.00262347 0.0319946 -0.0869607 0.0762078 0.110654 0.124114 0.10403 0.00623924 0.101004 -0.044092 -0.032776 -0.0230352 -0.0180175 -0.0242059 0.0202681 -0.0153149 0.0285495 0.0833453 -0.0317465 -0.00621923 -0.0191134 0.0473786 -0.0386867 0.119939 -0.0194332 -0.0871326 -0.00806044 -0.0479082 -0.0855731 -0.0234432 -0.0805205 -0.0406434 0.0439811 0.0269332 0.0176746 -0.00772862 -0.0696001 0.0873815 0.00949481 0.00454118 -0.0152217 0.00675161 -0.00866712 0.0257015 0.0633643 -0.0543348 -0.00387984 -0.0595212 0.022172 0.0540768 0.121241 -0.0454463 -0.0159379 0.0197615 -0.0605367 0.0503019 0.0443885 -0.0930284 0.0587261 -0.0240017 -0.0698608 -0.0775956 -0.0380136 -0.0180252 0.0602635 0.0841146 -0.0888202 -0.00621839 -0.0594048 0.0379429 -0.00111346 -0.0756198 0.0219666 0.0524161 -0.0340865 0.0109062 0.0644447 0.0251975 0.070584 -0.0185979 -2.67791e-05 0.0204365 -0.0982808 -0.00941146 0.0881322 -0.00872647 -0.0144763 -0.0274714 -0.043848 -0.0742021 -0.0339948 0.0474871 -0.098208 -0.0655582 -0.0115622 -0.0639721 0.0149602 -0.0445033 -0.124097 0.0274283 -0.0545949 -0.0263513 -0.0539692 -0.0070435 -0.0150231 0.074563 0.0130611 0.0374383 -0.0730672 -0.0711768 -0.0720919 0.0111339 -0.0148883 0.012208 -0.0165491 0.0122437 0.0473944 0.0304623 -0.0149366 -0.0154709 -0.0318765 0.0203948 0.0353793 0.00968883 0.00341358 -0.0921506 -0.0106881 -0.001613 -0.015473 -0.00849763 -0.0531161 0.0622408 -0.115627 0.0557979 -0.0559996 
  Neuron 13
   - Bias: 0.0229849
